-4 15.2976174671555
-3.9 14.8143631142878
-3.8 14.283005236599
-3.7 13.7088529863595
-3.6 13.097643103064
-3.5 12.4554825938273
-3.4 11.7887877141878
-3.3 11.1042198590027
-3.2 10.4086190039931
-3.1 9.70893536296697
-3 9.01215994358093
-2.9 8.32525469550212
-2.8 7.65508294890866
-2.7 7.00834083836319
-2.6 6.39149039724975
-2.5 5.8106949912723
-2.4 5.27175773614194
-2.3 4.78006351476296
-2.2 4.34052517326287
-2.1 3.95753443345788
-2 3.63491801222023
-1.9 3.3758993861881
-1.8 3.18306658385263
-1.7 3.05834632683272
-1.6 3.00298477870946
-1.5 3.01753509377162
-1.4 3.10185189008078
-1.3 3.25509270207965
-1.2 3.47572639822942
-1.1 3.76154847956995
-1 4.10970310634472
-0.9 4.51671163260762
-0.8 4.97850736370334
-0.7 5.49047618933616
-0.6 6.04750268623475
-0.5 6.64402122977058
-0.4 7.27407160383945
-0.3 7.93135855337062
-0.2 8.60931468443457
-0.0999999999999996 9.30116608347221
0 10
0.100000000000001 10.6988339165278
0.2 11.3906853155654
0.3 12.0686414466294
0.4 12.7259283961606
0.5 13.3559787702294
0.600000000000001 13.9524973137653
0.7 14.5095238106638
0.800000000000001 15.0214926362967
0.9 15.4832883673924
1 15.8902968936553
1.1 16.23845152043
1.2 16.5242736017706
1.3 16.7449072979204
1.4 16.8981481099192
1.5 16.9824649062284
1.6 16.9970152212905
1.7 16.9416536731673
1.8 16.8169334161474
1.9 16.6241006138119
2 16.3650819877798
2.1 16.0424655665421
2.2 15.6594748267371
2.3 15.219936485237
2.4 14.7282422638581
2.5 14.1893050087277
2.6 13.6085096027502
2.7 12.9916591616368
2.8 12.3449170510913
2.9 11.6747453044979
3 10.9878400564191
3.1 10.291064637033
3.2 9.59138099600694
3.3 8.89578014099726
3.4 8.21121228581218
3.5 7.54451740617266
3.6 6.90235689693603
3.7 6.29114701364055
3.8 5.71699476340096
3.9 5.18563688571218
4 4.7023825328445
