-4 15.0701113185335
-3.9 14.3635225855644
-3.8 12.5108625162222
-3.7 12.9699598395718
-3.6 15.3974132019029
-3.5 12.4292334753341
-3.4 12.2556571629407
-3.3 11.0460033378896
-3.2 10.4798149458526
-3.1 9.71332019425839
-3 8.62720658882334
-2.9 8.56624260994042
-2.8 8.80011275773231
-2.7 6.24029672644467
-2.6 6.63659483082267
-2.5 4.05907764643646
-2.4 5.10373185720684
-2.3 2.6119392659619
-2.2 3.77421069869803
-2.1 4.56009855994075
-2 2.31534811822249
-1.9 4.24505411862855
-1.8 -0.0983309880609959
-1.7 2.76762190435509
-1.6 7.06096791478744
-1.5 3.95950966923202
-1.4 6.31909283906684
-1.3 7.45303687394851
-1.2 3.36535684414732
-1.1 2.60679214413191
-1 5.39114037407355
-0.9 6.59854753801734
-0.8 5.84224821056946
-0.7 7.4882277992506
-0.6 5.25361334140538
-0.5 6.09315840446301
-0.4 8.51654315414813
-0.3 8.30020847125519
-0.2 8.19321525870958
-0.0999999999999996 9.33472193879592
0 10
0.100000000000001 10.7821429507722
0.2 11.6397507763135
0.3 12.7815798898993
0.4 13.3276306465017
0.5 12.035097106924
0.600000000000001 13.5432140426954
0.7 14.8990158862991
0.800000000000001 14.8649944092408
0.9 12.0692907568064
1 14.6144338051785
1.1 18.0468024268659
1.2 16.8188858667125
1.3 13.90711197155
1.4 17.3237169531719
1.5 16.6658450885055
1.6 18.3401500151964
1.7 21.1196537461921
1.8 13.8644219135803
1.9 15.6682173035167
2 16.1127284185955
2.1 12.3544812357153
2.2 15.608992317815
2.3 14.3352779986907
2.4 17.7483769768856
2.5 10.6966500463935
2.6 15.1428697103196
2.7 13.853278085138
2.8 12.8374110214945
2.9 11.7449946460578
3 10.7872237696427
3.1 10.3830104091361
3.2 9.69479044843683
3.3 8.67658877055156
3.4 8.0054305635432
3.5 6.78946478955589
3.6 7.43032487955253
3.7 6.9068034990864
3.8 5.34733890492624
3.9 4.76515707505688
4 2.62269176712872
