-1.69937983900309 3.05778833143715
2.30644108355045 15.1897876354786
-0.728184625506401 5.34138963603234
3.06413923203945 10.5416320269027
3.52373827435076 7.3896147665623
-3.63554800488055 13.3187849384368
0.22484390437603 11.5606793882392
3.13935235515237 10.0156820759441
0.41148011572659 12.7997643507168
-0.347082117572427 7.61891239255785
3.65466676279902 6.56399506460301
-0.373326750472188 7.44699468055231
1.42056508362293 16.9211554646647
0.581067215651274 13.8424141739789
-3.17660253867507 10.2450191354373
3.19859976321459 9.60116633686574
-2.03129812516272 3.72919271400027
-3.66352373175323 13.4898852591507
-1.37663424573839 3.13153219953949
3.63602919317782 6.67824976150042
3.11631452850997 10.176928031802
1.5424272492528 16.9971833729484
1.12405451014638 16.313016624926
3.95415821298957 4.91762383432782
1.24564639292657 16.6332198839331
1.6682437453419 16.9667902945924
0.352528197690845 12.4169014028965
0.753136163577437 14.78751070076
-1.68672210164368 3.04698309677377
-2.82309082150459 7.80799134145559
3.70419386029243 6.26628201176291
3.21839236095548 9.46293036887222
1.52564222738147 16.9928650879718
2.36373934149742 14.9122618329916
-3.8030905239284 14.3000962876419
-0.177632231265306 8.76310308407544
2.06767630018294 16.1535187592422
-2.26873651333153 4.6368272755523
-1.45455193892121 3.0472414192104
-2.1469937171787 4.13021637096035
-2.85759982094169 8.03866461719466
-0.683629313483834 5.57872347756822
-0.690205389633775 5.54313097688093
-1.04923639260232 3.93069883338393
-2.78044201806188 7.52654386817913
-2.88955149240792 8.254331957554
-2.13572720438242 4.08762074653035
-0.272300397977233 8.11736550076182
-1.8722188770771 3.31559408803187
2.86262172274292 11.9275655693326
-3.63335066661239 13.3052341893729
-0.4623994063586 6.87732225282328
2.39139876514673 14.7724642925799
-3.02480592019856 9.1843499485492
0.487583870068192 13.2794488001373
-2.34774888306856 5.00862593361317
-2.97974679805338 8.8720185082082
2.02646291442215 16.285775219451
3.1603628732264 9.86861617774397
-1.00429779291153 4.09350280426694
1.32092155702412 16.7826037759729
-3.24127471260726 10.6966194130303
-0.928242897614837 4.39602226089066
-1.80493084341288 3.19099150836101
2.51712031103671 14.0926849654534
-0.411869268864393 7.19773916812854
2.48051482439041 14.2977758065847
2.4991160761565 14.1942604210925
2.35473856888711 14.9569486625487
-0.481346499174833 6.75918833853104
2.03580126911402 16.2567354454305
1.03376905247569 16.0146329218746
1.68145921081305 16.9571817651081
-3.99500181339681 15.2746821607954
-0.197467407211661 8.62669389263447
-2.23904891870916 4.50566090787316
-0.961467698216438 4.25977292046387
0.902168026193976 15.4927091402095
-1.18561672605574 3.51288323080828
-3.11091660521924 9.78530133772381
-2.05104421824217 3.79183702906478
1.34444469958544 16.8214416207522
-0.658825762569904 5.71467846267863
2.30556667223573 15.1938931606524
-3.17708284594119 10.2483791976383
-0.520858068019152 6.51662778099344
3.87965583987534 5.29000539753899
3.14440891519189 9.9802861948448
3.09175248630345 10.3487367496801
-2.59957879781723 6.38896425352643
-2.95443446747959 8.69752776001735
1.22481540031731 16.5852027767759
-1.25186822190881 3.35299561457372
1.25406502373517 16.6518099761005
-1.43701406009495 3.06254855896375
-2.49847104586661 5.80212550838577
2.25835441052914 15.4095865914989
-3.25124010629952 10.7659951424531
-0.26576766744256 8.16144957303193
0.0920436792075634 10.6433963758524
0.799911674112082 15.0210618560387
-1.33741167746484 3.18977563203865
-0.0910957306623459 9.36321146319457
3.63579061999917 6.67971986130902
-0.136780822649598 9.04551698664386
3.12280177697539 10.1315283956006
3.31550549529493 8.78873763097562
0.869879858568311 15.3497602278748
-0.714481787756085 5.41341778915493
-2.82324247248471 7.80899953318084
3.48239842616022 7.66027359246924
-1.59016880020499 3.00131348346192
-3.51423542760313 12.5485466773995
3.58181552030146 7.01701234540009
1.76477018743753 16.8687218913561
-2.86164563521743 8.06586689073573
0.39427724853158 12.6889869386662
3.63272990845144 6.69859685337616
0.683866824954748 14.4225653721363
-0.763917746022344 5.15770888049554
1.18314783461392 16.4806036251736
-1.44143506325781 3.05848854555553
-1.53823991306126 3.00370939260751
-2.24185894988477 4.51787055403441
-1.04408907331526 3.94873111685401
3.8737536277622 5.3206513448204
-2.7663815934211 7.43471760184475
-3.27164800092578 10.9078231591128
-2.86474473774433 8.08672532845024
1.52005681209266 16.9909911887802
0.954051867127419 15.7103600663333
3.13115293718874 10.0730766873807
1.38399274088442 16.8782202210879
1.89662190340459 16.6317075274209
0.169085806235671 11.177968841331
1.27870759740472 16.7035115617566
2.57444368116558 13.7606070315073
2.29025241360068 15.2651498615707
3.83857533894479 5.50665107931369
-0.484547710046172 6.73934272470364
-1.50638238340616 3.01451702586807
-0.724200379103422 5.36224299537807
-3.91626310534775 14.896364208118
-2.52920380793512 5.97623314599257
2.74183455109596 12.7243686999204
-2.15070574358106 4.14441398223002
-2.08720035478473 3.91279767593193
-3.38647067733109 11.6970659248419
-2.03421057574451 3.73827930097154
1.85708164423704 16.715096384365
2.7796253208071 12.4788033960847
-0.0197818633168936 9.86153598786576
-0.896727761253715 4.53097935701684
-2.02840804681182 3.72022850614642
-3.11122830957174 9.78748225204646
-0.88004451803863 4.60462930001875
0.575482511892915 13.8096775333897
-2.26485789753497 4.61941976038547
-0.441855983808637 7.00667445550241
-2.25607465021312 4.58029949431019
0.0183965060859919 10.1287682791095
-1.16876342520118 3.5581279049441
1.19988127052784 16.5239723979715
-1.00228834711015 4.10106374171537
-1.15643695369363 3.59237901094041
0.269503563642502 11.8637706704916
1.92267488315701 16.5710883200063
-2.23117649741471 4.47168640219525
-0.698031051084399 5.50102647005937
-1.87450650520623 3.3203656144366
1.03978442773223 16.0360655610974
-2.52937207370996 5.97719701926737
2.90915289148688 11.6124664992736
1.97254403308034 16.4426529914969
1.34627719782293 16.8243089582243
0.944142986088991 15.6699625248678
-1.02209551818669 4.02757988809234
0.238685486838222 11.6549790941172
2.99745874293149 11.0054476257447
0.654000798240304 14.2585656713772
2.71814211830497 12.8763606548544
-1.50041468068957 3.01733036066913
1.66632257774472 16.9680858536576
-1.87985755130649 3.33166327761987
0.754745552316308 14.7957233762771
-0.149681596085429 8.95613692574605
-1.87973814830184 3.33140909809064
0.516723478212953 13.4582383313266
3.30550578422844 8.85773911590517
3.21499511599541 9.48664404003213
-1.80666702799499 3.19382134765143
-1.42813794873655 3.07110922432489
3.8851270750165 5.26174372446748
0.959946481510997 15.7341261124334
3.4985127132386 7.55426957580392
-0.267738381400704 8.14814248054551
-0.745339253917336 5.25245192979505
1.27384259365499 16.6936260195755
-2.78122706525028 7.53168546115868
0.582936465740204 13.853344700934
-2.09019178524613 3.92316415963596
3.69887149147689 6.29784899068842
0.810925807803869 15.0744764483589
0.1202378179878 10.8396381815741
-0.77941326238215 5.07996475083106
3.04197232984006 10.6961894100681
-1.08726508170366 3.80248881684702
-1.69408575445414 3.0531336353634
-2.63483811914921 6.60260446966721
-2.62262602895498 6.52811837181102
-0.14365915581584 8.99784131113847
-1.97628057189286 3.56761958569165
-2.2699616830796 4.64234270858032
1.39501110464334 16.89212665242
-3.61869098059833 13.2144242614477
1.60682469978929 16.9954573386008
-1.18489089235663 3.51479393949452
-0.728448016569018 5.34001366190294
2.56761059165001 13.8008618430054
3.35085878521204 8.54580531529239
-1.73977335914969 3.0996987651817
3.68883834965527 6.35764003642873
1.8271554261446 16.771237028593
1.49100065603852 16.9777261008212
-3.57724845781922 12.9540352793937
-0.8382389228791 4.79573441353763
-0.177236961200833 8.76582653360386
0.482026109471917 13.2450276270821
1.58609275892377 16.9991810830422
3.32546830736101 8.72011120221831
0.946809818968177 15.6808898608941
-0.572627929970622 6.20710152252237
0.336642937734723 12.3122423295759
-3.53217209130526 12.6650699492345
-1.91314514353871 3.40621864063618
-0.822784373536706 4.86870213768195
-2.41804210655391 5.3656511778038
2.65542050264776 13.2707150806092
-2.77690221741796 7.50337925484396
2.42734833620489 14.5853263310337
0.374609252437949 12.5613623528406
1.29854113608599 16.7421684106349
-2.62641204893589 6.55115586057121
1.06444287858903 16.1216320531254
-1.50504202581942 3.0151272467778
1.79643477126956 16.8225602717012
-0.808481402695179 4.9373251158955
3.75485128909349 5.97125256433385
3.7391869649291 6.06141261375253
1.81362031213939 16.7946398369859
-1.94226602837443 3.4774358952869
-2.22569652274251 4.44823895500986
0.744365213438869 14.7425353497876
-1.85982854291797 3.29035883328021
0.248563190922141 11.7220809353826
2.28233337029815 15.3015135859436
-2.65551351569593 6.72986058153852
-0.764806551858783 5.15321795129003
-0.22738977894187 8.4219531431844
2.94485445506871 11.3683004789679
3.4056636467576 8.17291195588578
3.05582047440112 10.5996693415009
1.39349474012852 16.8902624426675
3.60133583471179 6.89397421608652
0.13155915401876 10.918259874959
0.612152170389891 14.0224110795323
-1.30935035273433 3.2378793468042
-1.22140294872224 3.42293615473543
-3.83980559557676 14.4999488934876
0.0225043650716543 10.1575172590399
2.96834730915725 11.2066601018703
-3.94959372840822 15.0603523074326
-3.42354300804436 11.9476066436326
-2.68631020002067 6.92198790685984
2.16267259418964 15.8092673453701
1.88147444650531 16.6648853926467
3.77500508539379 5.85670937189542
-0.26822098530829 8.14488482955299
-3.4049238935113 11.8220887746761
1.19054499454796 16.4999996738011
2.06874535605311 16.1499480223091
-2.90315135195851 8.34668179241499
-0.827323243021965 4.84714424146511
-2.20011736638844 4.3410087039961
-3.53633151575923 12.6919700245896
-0.832858493551612 4.82099762824035
-3.4805736001581 12.3276834124026
-2.19290853664279 4.31145438300345
-3.56296712718904 12.8631055889851
1.36225631646812 16.8483395508266
-1.61806573905051 3.00781893462591
-3.19422734156251 10.3682727164062
-3.42476722225547 11.9558363116658
3.04352455027401 10.6853769040617
2.03397921659052 16.2624444620995
2.53284710086882 14.0028716308103
3.85712298937142 5.40787555788871
-3.17120284028351 10.2072410202096
-3.20766536518931 10.4621725328623
2.39065288938582 14.7762825175283
2.2766021322459 15.3276238075241
-3.92456075921655 14.937704693276
2.23252706229687 15.522509340149
1.83512521535158 16.7568763768858
1.04105482250452 16.0405640392068
-0.152713360264897 8.93515670139093
-2.74690518900752 7.30836209368309
-3.93427584134042 14.9856748353257
-0.380332846194506 7.40139314054515
-0.0616533700376749 9.56869976957547
-0.883303107693791 4.59012525461194
-0.282672464847565 8.04753868144809
1.70623200573027 16.9358981929892
-3.55758458934724 12.8286822793646
-1.16173521988094 3.57753730948586
2.42249818332493 14.6109253349549
2.68567069619894 13.082031997168
-2.09800476022065 3.95049544239244
-1.16811117902398 3.55991579676081
2.85508336126804 11.9782387833327
2.83010699041188 12.1453120232526
-1.63283635675907 3.01346705826142
-2.82361340336502 7.81146573313804
1.63193649053574 16.9869206564296
-3.16954649426043 10.195651401476
-3.73017781600356 13.8862937424378
3.99523622356355 4.72423924575815
-3.72100156731904 13.8327059364803
-1.29286972992122 3.26861541855573
3.32051009312272 8.75424921091601
0.937882157042623 15.6441504830959
-1.70971721038222 3.06743797970463
1.90237922407687 16.6186976221045
2.67243447341025 13.1649490959807
-1.48583375662565 3.02525003942845
-0.0594676174223423 9.5839719859883
1.57899012975395 16.9997650168904
1.13169883191586 16.3359499507438
1.15138331986964 16.3932969488732
3.82282723858953 5.59173233069638
-0.682117324322462 5.58693409128272
-3.04476176016033 9.3232424754644
0.20823728106916 11.4471490828874
-2.19941319338977 4.33810879337889
-0.108705887570977 9.24055657167874
-1.03828161209822 3.96926849860456
3.86680144630373 5.35695803396614
-0.893447078764439 4.54534268458123
-2.166041277349 4.20392176053663
0.986380370333791 15.8382411651038
-2.9076784234494 8.37749154802163
3.73975595459342 6.05812059873792
0.120574463158846 10.8419776364275
-2.69543736614287 6.97949742696483
0.975218361243606 15.7947708405107
3.88763332180679 5.24884501928859
1.35017213970423 16.8303273018152
-0.648672824725509 5.77109468771443
-1.41324005462229 3.08670434108174
2.68204255960882 13.1048144584531
-2.84946365095675 7.9840582453412
-2.45747242495418 5.5760598145876
3.17390946112573 9.77382172124206
-1.53504356555641 3.00447343322862
-1.09359565190971 3.78201118945106
2.27157182991505 15.3503965516265
-2.4529705606401 5.55168288925793
-3.8578735049814 14.5960882860554
-0.747137069702148 5.24321163378321
-0.134658645838499 9.06023561584376
-0.625240398570895 5.90295452715278
-1.25752958655357 3.34067639982952
2.93186651729047 11.4573443140646
-0.359135592356324 7.53974426221392
0.270118989050388 11.8679227908885
3.71074665524065 6.22756273788953
2.19673233665526 15.6729057526415
-2.32898921146989 4.91744149079893
-1.52970533818007 3.00590881123462
3.77073960192502 5.88081321881324
0.679200747981668 14.3971994267747
2.08658900298178 16.089314197925
-1.01832484453917 4.04138924778881
2.15355128981173 15.8446478429349
0.301417464390397 12.0781184534721
3.31196359731257 8.81316446268965
-2.5176284648478 5.9102013186064
-1.74225266091526 3.10263864938954
-3.24030069448054 10.6898348029334
-2.31610336713493 4.85584207872249
3.81679197028279 5.62462961430825
-1.62958259694278 3.01209190655755
1.80786421522498 16.8042153833225
2.28550267405808 15.2870001275065
-3.15665803104639 10.105453653032
-2.0832429677248 3.89916748419073
-1.83564102090895 3.24406784294817
-3.19153204746544 10.3494304715752
-3.05668926984072 9.40639009519944
3.92989244684577 5.03591105387727
3.88843437843025 5.24472857338068
-2.90346022881567 8.34878283653038
3.24247665330768 9.29500927351812
0.610414700582623 14.0124512353898
-0.836409127339721 4.80430914815812
-0.401580126956105 7.26388725799496
1.652015209198 16.9769249147588
-3.33997803367674 11.3796064625334
-1.28549935854971 3.28295319144855
1.44630040973425 16.9458227130195
-1.46440601535141 3.03957879079488
2.65254878439009 13.2884743329036
-2.27862333878875 4.68156442021929
-0.0164085105061531 9.88514558050448
-1.79160261899233 3.16995177298109
-2.46381345018744 5.6105474919555
3.60497011244297 6.87119635317706
-1.42619569785893 3.07305526861832
-0.172348929569125 8.79952135412357
-3.77605942450464 14.1492369968134
0.379675744101405 12.594335274529
1.15392176434398 16.40051235867
0.770108357071877 14.8734911766694
-1.42450099438429 3.07477462959064
3.12891449965537 10.0887447000912
1.01005557924509 15.928029826092
-1.57676067762077 3.00012450681361
-0.89436268992722 4.5413280868407
-2.71619926020503 7.11124597492039
2.900415180251 11.6719233016541
3.62480971030891 6.74758794188455
0.509157467633486 13.4120923074391
-1.36362069286406 3.14968953920054
3.97293774969876 4.82813066777816
-2.12144259363413 4.03469415961359
0.901375722140074 15.4892693148088
-3.13457176461816 9.95085418095739
-0.103739440441132 9.27512571850599
-3.20443341322243 10.4395958595882
-2.71067389845848 7.07605979678924
-1.73605703376234 3.09537149931943
0.670978687703609 14.3522696429867
1.85366127081215 16.7218182626635
-2.67583271116018 6.85628652620693
2.93174210563302 11.4581961016002
1.66859309747815 16.9665519421899
2.08319628983736 16.1009927159594
-2.82332713156939 7.80956237763088
-1.13554429262877 3.65265337424975
1.38665985129774 16.881663085319
0.190580813214183 11.3260045688776
-1.20158565789461 3.47171257390103
-2.07575438730419 3.87363664994086
-3.53446562960744 12.6799085878623
-2.10704206302762 3.98257015867036
3.12062330543995 10.1467746800275
2.49461932852864 14.2194190538541
1.98013057745993 16.4217019541352
-2.76070619374514 7.39779516766055
-3.00206329114735 9.02646053541596
3.79780646786094 5.72915014935475
-0.510960031300783 6.57689581317318
-0.287866985425353 8.01264660402296
-2.67761535011232 6.86744078774509
0.679492458701134 14.3987880494587
-1.83377584442496 3.24066200439007
-2.15922463685274 4.17730144374076
1.52966265194118 16.99407890771
-1.73718080297112 3.09666995373468
2.48318452946842 14.2830095426087
-3.24866714328527 10.7480900448256
2.5762405693531 13.7499920440624
-0.580573754385114 6.16047360526943
2.04709807783365 16.2208763926028
1.2990840524435 16.7431893645178
-0.443780824542046 6.99450016078163
1.01716947555542 15.9543624722577
-3.99627720750868 15.2805471392696
-2.26205188781023 4.60687662780856
1.63897796534002 16.9837357267358
-2.27866809442639 4.68176812144328
2.5114697702229 14.1247083264425
-1.53788900561631 3.00378977924311
1.50194148533046 16.9834130925736
3.46144863218069 7.79899107007801
-3.07376268133521 9.52555420294836
-2.97835449688137 8.86240086319686
1.42579085938632 16.9265358110092
-0.5684112329036 6.23194351434771
2.67520782351494 13.1476211343731
3.77150453440845 5.87648512947268
-3.43608817830682 12.0317999108166
-0.321718454360962 7.78661880839657
1.61268094740808 16.9938607725399
-3.30447865650058 11.1351667599395
3.94355212897062 4.96896075242354
-1.97520804777741 3.56466178241386
-3.60369251482189 13.1208009889585
1.49059957452118 16.9775017452781
2.29541882127523 15.2412479414094
-1.17115139216185 3.55160556565199
-1.06846844032407 3.86475104211945
-1.70319895446301 3.06126701361783
-3.36021670140326 11.5182064008605
-1.07636584341526 3.83832626126469
-2.57588948309422 6.24793298634611
0.288429765030742 11.9911304360746
0.0315896961838007 10.2210910975426
3.5602808278054 7.15406397746889
-1.26942972838879 3.3154778219667
-0.282289806753397 8.05011112635146
-3.33975054696202 11.3780452531968
2.88085476867855 11.8045549649669
-0.834714880213141 4.81226419107262
1.8871948029846 16.6525352484084
-2.62605275213718 6.54896745326988
-0.361906949430704 7.5215919028432
2.16163807548583 15.8133044803054
-3.49880001321435 12.4476146782563
2.52065196074545 14.0726035908941
-1.59085980430245 3.00140885369262
-1.08263177610934 3.81763372701406
-1.50309766456485 3.0160347555476
-3.70104028098285 13.7150268147559
0.150439387187362 11.0491079996401
1.4321073256433 16.9327866025036
3.22586848214269 9.4107672744373
-3.79578641243279 14.2596376027469
3.91262616589665 5.12186214646037
-1.57689900323749 3.00013034890462
3.51310720480978 7.45881048063253
1.50086065381765 16.9828884818315
-0.423704041168094 7.12202163006556
2.53182511031628 14.0087383835053
-3.68400641717017 13.6134335851427
1.91225348412991 16.5958740516132
-1.21024405024946 3.450085102862
2.63400658778846 13.4024835515468
0.284331133589149 11.9636085210384
-1.80363709107041 3.18889614268639
2.40758569538593 14.6889510932004
-3.26684244163334 10.874457980251
2.65686219371855 13.2617892098149
-1.78515942022204 3.16021545104712
2.02488079667091 16.2906409485492
3.71322056092322 6.21298691094076
-3.34826751984656 11.4364466887647
2.83491797186434 12.1132310039967
2.4179057367146 14.6350642051077
-0.918611163273454 4.43668372596901
-1.37922080792487 3.12806174014872
-2.36049037612975 5.0715616896588
0.555061301216483 13.6889677940084
3.10444152355194 10.2599980921251
0.237712731584907 11.6483620713852
0.695669254288077 14.4862952351801
1.32588114030659 16.7911052547593
0.239139668643475 11.6580680622975
0.0787431951612234 10.5506329218337
-3.8707161527127 14.6635136303528
-3.61832012049854 13.2121179144771
3.43480546027422 7.97679422575489
2.15428430959582 15.841822472625
-2.39135507121682 5.22731195986767
1.20209200307727 16.529565696001
1.23013345897198 16.5977338039308
-0.837969908490777 4.79699396906117
2.49843862839043 14.1980560789323
0.376187341287732 12.5716397053397
3.08106121234596 10.4234613804624
0.426511900499463 12.8958839691868
3.24838489294052 9.25387442222904
0.699690936133265 14.5078688997274
-0.612290792167187 5.97679480985935
3.59668258391321 6.92319834946584
1.67230322770774 16.9639681759582
-0.693556735292077 5.52506612295762
-3.85308733023703 14.5707658378795
0.533872662112117 13.5620963156694
-0.079492375254631 9.44413922262436
3.02939216978848 10.7837565230922
2.50282150320709 14.1734653494907
2.83279982022941 12.1273615239365
-1.05683241784573 3.90438203776783
2.9915993027389 11.0460209058877
-2.78929462842643 7.58461078404088
-1.74550664238632 3.10656146200406
1.333641262725 16.8040720429163
3.81906861439347 5.61220120606033
0.661917893216014 14.3024159091771
0.212720636278391 11.4778399401943
-3.51374220103025 12.5453307379467
3.75231090933084 5.98580779577041
-3.03810297138989 9.27686464968756
-3.29309359192848 11.0564543360501
3.04611291922629 10.6673431022342
0.0669650379568338 10.4684050030944
-1.30004002153873 3.25501776747829
3.15467700362206 9.90841216313594
-3.74422697536647 13.9677029787779
-2.10216242074966 3.96519038281692
1.49192280881107 16.9782376740833
-2.19345261342824 4.31367466129831
-1.45204329490662 3.04930001127345
-2.60812946595252 6.44037143509369
2.41143666952848 14.6689010355405
-2.8297435361892 7.85226636662811
2.58173913322389 13.7174346062283
-1.35201737098396 3.16685767160297
-1.00664489716291 4.08470156002097
1.03796339035034 16.0296002645544
-3.2269300557673 10.5966370340663
-3.82405027747154 14.4149147311561
3.94435824267566 4.96503895298497
0.671510765329003 14.3551861395719
2.25458452105522 15.4262960855899
3.13516898080707 10.0449654002388
2.03892362862825 16.2469039055647
3.83362984098494 5.53325076942592
-3.6468234565109 13.3880659418279
3.22720707766712 9.40143089218394
2.92400651238859 11.5111131766024
2.20326073095202 15.646012157104
-0.985468665137887 4.16528225400233
-3.66313561052084 13.4875298742582
-1.08471134677529 3.81081978781095
-1.8099898416549 3.19929446194539
2.80373984575272 12.3202343465493
-1.10078630037606 3.75905376873948
-1.56417767517269 3.00015332236283
2.0730827152729 16.1353888120402
2.75867699459195 12.6153859085795
-0.336627511307597 7.68785959437151
1.837053315714 16.7533376504088
-3.16737091168761 10.1804278221951
-2.24013457819819 4.51037298416052
3.63160998187959 6.70551175806019
2.01630032993853 16.3167551904817
2.55164306610823 13.8942339267547
-0.65778318606317 5.72045143222582
0.750707944855094 14.7750960917551
2.39058846235275 14.7766122023757
3.10726920329034 10.2402169790391
-0.918467253446579 4.4372951804062
-3.27742332592607 10.9478936516121
1.00594909675419 15.9126927021377
1.96508973836899 16.4628776445937
-3.31697234138846 11.2213740958055
-1.59585911035538 3.00219838584061
0.916497258469462 15.5543229858264
2.02345646359026 16.2950079497743
3.33645706437528 8.64456540410859
-0.193995954468846 8.6505300534849
0.53695572912693 13.5806576101258
1.8929627686739 16.639861905891
2.85957939550281 11.9480295787889
3.27317203581333 9.08159975139991
-3.54894219711423 12.7732399933583
0.0232664328068495 10.1628503361755
-1.19564181566238 3.48684287664644
2.76444898359478 12.5778647108057
2.45148131065071 14.4563613575194
-3.0613501816988 9.43890528391404
1.70149243995547 16.9402998941292
-2.11784913577139 4.02157106481448
-3.40034599043429 11.7911291275594
3.48516917787492 7.64200284095453
-2.74265739880502 7.28093801471478
1.17645880021155 16.4627590090129
-2.61185803078115 6.46286952137439
-3.83940792642534 14.4978162573989
0.170510770753026 11.1878001439497
-3.30977685377002 11.1717471255026
-1.73598123155534 3.09528422787872
-0.63652079179883 5.83919177944706
0.698224993422627 14.5000135123025
2.45355543680489 14.4451551782816
-2.38403832912445 5.18997329006526
-0.324602626264095 7.76747467597061
-0.41485508903861 7.17859878963118
1.86998206563294 16.6890376211519
1.71803848445415 16.9242561085583
2.64977583102882 13.3055970696134
3.09252896718681 10.3433080283538
3.62115659192204 6.77025356984622
0.404933774843812 12.7577052426489
0.178686128929257 11.2441574285428
-2.63441395759583 6.60000879217633
-0.165827520191669 8.84452010964742
-1.96943362802267 3.54886441011801
-3.68175490386784 13.5999260385003
1.07840407826006 16.1684313660417
0.316487312316895 12.1786118143953
-2.87917160056531 8.18406365716609
-1.73030578531325 3.08886278251967
0.664244761690497 14.3152525297103
-2.67979286238551 6.88107933871292
-3.22959111444652 10.6151945248066
-0.571095269173384 6.21612316858319
-1.15390747413039 3.59952814520238
2.75946831889451 12.6102469784341
-1.91894021071494 3.41994713271907
-3.81484406255186 14.3647185743824
2.89919631741941 11.6802071581928
-1.3232963103801 3.21330470634587
1.05431097373366 16.0869212205865
0.371410069987178 12.5405080318669
-0.988444054499269 4.1538013519905
-2.51301587931812 5.88404090720078
-0.56847527064383 6.23156574417975
1.04618878848851 16.0586440731691
0.166738810017705 11.1617709315728
1.27697069756687 16.700000431877
1.83488745056093 16.7573110174334
-0.105417013168335 9.2634468666115
-0.924347074702382 4.41240652023935
-3.94533192925155 15.0396937372189
-3.97052617929876 15.1604784976439
3.95949152112007 4.89202454184651
-3.13690495863557 9.96718625549825
-0.650646733120084 5.76009206973307
1.74307637289166 16.8963752329832
1.94031305797398 16.527513959335
2.97599058970809 11.1539233163461
0.86294368840754 15.3183189448794
2.04962681047618 16.212740620351
2.77793038450181 12.4898955846382
0.902237191796303 15.4930092623248
2.3457933422178 15.0009618568652
-3.81716253235936 14.3773948648425
-0.664683602750301 5.68232913522247
2.99905909970403 10.9943600078243
1.17877612449229 16.468973808439
3.39583189412951 8.23943576306716
-2.62219923175871 6.52552447592279
-1.47349768690765 3.03310845638224
2.43405023403466 14.549776483989
3.91170728951693 5.12647727314196
-1.42091558501124 3.07847775159193
-3.99046697281301 15.2537589927321
3.93736495450139 4.99917044212923
-2.81318086571991 7.74221926909451
-3.60508562251925 13.1295269310805
0.778827860951424 14.9171195272634
-1.42937245219946 3.06988589585082
0.223432002589107 11.5510432969896
2.36337616294622 14.9140726627546
-3.44853922538459 12.1150453567921
1.56016557849944 16.9996044588925
3.58905205875635 6.97126476916475
-1.77784546092153 3.14950744981664
-2.00474731810391 3.64881875503764
-2.72451615892351 7.16437494245039
-3.42695955187082 11.9705667140195
0.459500664845109 13.1045043478781
-0.0813035871833563 9.43150169459881
-0.0456611048430204 9.68048332177559
3.10697268135846 10.2422913994285
-3.70636512152851 13.7465654181773
-2.3700494915247 5.11930416719866
0.110249113291502 10.7701813357245
-2.10928088799119 3.99059213532691
0.60348535887897 13.9726094017882
-0.141936708241701 9.0097757214284
0.554821509867907 13.6875411507787
-2.84678147919476 7.96608576661275
-2.83432989940047 7.88284491942324
-0.701735096052289 5.48119345946929
1.4640822596848 16.9601801877531
1.22742256335914 16.5913693703298
3.32789066433907 8.70344431979373
2.50490505993366 14.1617471204557
1.40712000988424 16.9064443640212
2.45999287441373 14.4102531444891
-2.97548464313149 8.84258365743082
-1.99377172812819 3.616898454791
-1.34762406721711 3.17359818599763
-0.741845680400729 5.27045182485125
1.0829406157136 16.1833799106955
2.46889635920525 14.3616799880378
-1.9295903891325 3.44575325333148
2.55573711916804 13.8703871467965
-3.87617864832282 14.6919598343669
1.23520613275468 16.6095127528955
2.4937566742301 14.2242357378913
-0.3090485855937 7.87093295756034
-2.37266318686306 5.13243595169357
-3.8498542625457 14.5536012008931
-1.73493842221797 3.0940876639253
3.32218100503087 8.74274128217532
3.46957216411829 7.74508370232444
0.340252909809351 12.3360785936286
-2.2446196321398 4.52990793334434
-0.0845775678753853 9.40866262237011
2.40918988920748 14.6806073074804
-0.738954737782478 5.28539044908264
-3.17030746489763 10.200976057685
-1.75547860190272 3.11903748214042
-1.10827023535967 3.73550269595774
-1.92604127153754 3.43707075818546
-0.234545331448317 8.3731944715853
-1.07323621399701 3.84875215025411
-3.02982356585562 9.2192443342665
-3.62405055575073 13.2477054765059
-1.89762956649065 3.37055364650715
3.74912934377789 6.0040732603789
-0.0920361410826445 9.35665616767661
-0.177423762157559 8.7645394326262
1.99034304916859 16.3929157263604
1.34112185053527 16.8161838885884
-3.60467522591352 13.1269569797817
1.56084195524454 16.9996531895684
-1.09390746615827 3.78100899002016
3.07306885905564 10.4792912699697
2.20237783715129 15.649663317589
-2.88637086935341 8.2327798957422
-1.6399258300662 3.01671944882285
-2.99133771657944 8.95216858629962
0.719212990254164 14.6115495257334
0.493404870852828 13.3153916864924
1.50976896099746 16.9869688573031
-1.50983352772892 3.01300359201581
0.844694731757045 15.2343792287116
3.9282745514065 5.04390245077485
1.94563932158053 16.5139558199815
-3.39314295724034 11.742340388648
-0.390648748725653 7.33448141945617
-3.57170452363789 12.9188074010381
-1.28355588763952 3.28679470064411
1.87161719053984 16.6856550982774
-3.96714447624981 15.1444547944958
2.17527585849166 15.7595860619439
-0.29619831033051 7.95679669102053
1.76672280021012 16.866074102925
1.33204573765397 16.8014394341243
0.576589765027165 13.8161775502485
1.63050360046327 16.9875263514794
1.25776848383248 16.6598387536614
-1.68518283963203 3.04574504907099
-3.22208435460925 10.5628336889289
3.69937056861818 6.29488449351182
1.89067223295569 16.6449211258203
0.901787748560309 15.4910585771141
-3.04056895337999 9.29403634908399
0.402072371914983 12.7392839995935
-1.89794977754354 3.37127360263661
3.18688664957881 9.68305042679656
-3.92656043358147 14.9476167207779
-2.11012051254511 3.9936083787111
-2.95964323729277 8.73336992925625
-1.39013482630253 3.11392465427555
1.81119110621512 16.7987084134027
3.93396188318729 5.01586806177745
1.7210682220757 16.9211128690556
0.0355184879153967 10.2485771417607
-0.511618625372648 6.57287522780584
3.59060200490057 6.96148694143155
-3.03854809887707 9.2799639427409
-3.39883858710527 11.7809265463129
3.11217194236815 10.2059152695883
-0.604383239522576 6.02221723070433
-3.66111456975341 13.4752563352664
1.1795371491462 16.4710072139617
-0.251046700403094 8.26107410803736
0.94340898655355 15.666947884986
-1.83347653970122 3.24011765891913
-2.74163770675659 7.27436208360804
-3.0859658382833 9.61081307828089
0.0614629052579403 10.429969502289
0.384258300065994 12.6241013902118
-2.87483048439026 8.15473338167465
-2.64184759929776 6.64558749017121
2.09588258527219 16.0569649317322
0.2191595248878 11.5218653000648
2.88791486062109 11.7567601611143
1.38843990303576 16.8839336449013
-3.89567176252604 14.7923240359396
1.54559121094644 16.9977765751879
3.13370985724032 10.0551790029856
1.05480140261352 16.0886157976514
-3.14164276048541 10.0003507482692
3.36852163076401 8.42509588975401
1.40289904922247 16.9015683192064
-2.81125029921532 7.72943176206682
1.96273473836482 16.4691925273631
3.5407908950001 7.27924175936693
-0.633732995018363 5.85490093934944
-1.61821537464857 3.00786850677714
-1.92458663880825 3.43353605010926
-2.21694946475327 4.41115820254949
0.525234747678041 13.5099128655356
2.05320106260478 16.2011733160596
1.35682836733758 16.8403723994968
0.372182354331017 12.5455446649029
2.49170926213264 14.2356550001499
2.07333441637456 16.1345403810991
-3.83945227041841 14.4980541023868
-0.952770398929715 4.29483287211862
-3.59295909106731 13.0533687262563
2.38322349824011 14.8141690419049
3.38959370553493 8.28173337540603
0.340786963701248 12.3396023174926
2.81891680136323 12.2197381158066
0.66850290633738 14.3386828598523
1.34658914804459 16.82479478908
0.090516772121191 10.6327525244625
2.10200471431017 16.0353689238488
3.22689830325544 9.40358442497974
2.56379609741271 13.8232565661609
-3.42854520305991 11.9812149070487
-3.9688292555511 15.152445239029
-3.58241107314825 12.9867585215348
2.93248143792152 11.4531339135071
0.609961351379752 14.0098504698536
-1.48925942368805 3.02325604433965
3.67572627030313 6.43633131932254
0.729550056159496 14.6657399661521
0.251274686306715 11.7404717212565
-0.928506627678871 4.39491618963698
-1.44357416406274 3.05657280879207
2.46709004230797 14.3715624723093
-3.66464401222765 13.496680936792
-1.09005844220519 3.79342240879967
2.8527757357806 11.9937284078912
1.58357262797654 16.9994286892199
1.4758917838335 16.9684996010291
-1.21587957814336 3.43627203944366
0.43745463527739 12.9654461534706
-2.90205105952919 8.33919865940328
2.27945245057344 15.3146602238109
3.09490057267249 10.3267258176466
-2.36723293364048 5.10519048309728
2.16498369164765 15.8002260012135
0.770903686061502 14.8774860410899
3.66135793924332 6.52326495816945
-2.73049281910062 7.20267562535318
0.207794193178415 11.4441143303496
2.98521094024181 11.0902157014759
2.95764856226742 11.2803597818155
-3.81049085408449 14.3408539717261
3.80711754783988 5.67769532939492
-0.0782064143568277 9.45311297989752
-0.886637415736914 4.57534364834529
-0.65956032089889 5.71061385246943
-3.25659343600273 10.8032322594699
-2.7055263184011 7.04335967675943
-0.756668038666248 5.19448250118708
-1.26548444665968 3.32372724507771
-0.677940374240279 5.60966872137088
-1.56758024729788 3.00003620105446
0.482244299724698 13.2463808535788
-2.75300679542124 7.3478394202776
3.65263811312616 6.57637420700217
-3.64826699718833 13.3969047298131
-1.02273805812001 4.02523517290219
3.70092273131013 6.28567061416417
1.16342012584209 16.4271447486127
-3.50989908538759 12.5202516792982
-0.720432572066784 5.38203125700512
-0.592758927494287 6.08944014630842
0.0652646776288748 10.4565284867553
-0.403200713917613 7.25344923284687
0.986091068014503 15.8371236391357
-2.88017655164003 8.19085839720344
3.26357120648026 9.14826592739415
0.555546198040247 13.691852048731
0.386244591325521 12.6369863160731
-3.06537901982665 9.46702088332086
2.09622665867209 16.0557572150158
-0.173044426366687 8.79472529546759
2.25575131736696 15.4211326579048
-3.6317876111716 13.2955852769466
2.55875734239817 13.8527535392437
-1.84473242051899 3.26100512633068
-1.73719668388367 3.09668836574288
1.14577247574925 16.3772022888918
3.5849507022649 6.99717319448335
-3.94401236437261 15.0332787255273
-1.18705862388015 3.5090976703852
-0.647634200751781 5.77689062402093
-0.336985623463988 7.68549365344823
1.69354063458741 16.9473345941476
3.35878446139395 8.49158218973722
1.01688560470939 15.9533174654858
3.21745422668755 9.46947818709463
2.05863327346742 16.183441478068
-2.89713307470083 8.30577595307774
-2.77396097593009 7.48415542255143
-2.469502504915 5.64163946757916
-0.534518875181675 6.4340104130681
-3.30224558524787 11.1197393518866
-2.20975999161601 4.38100044812484
0.57718943618238 13.8196959061487
-0.798646572977304 4.98511255259527
0.523723045364022 13.5007533183911
2.63699102960527 13.3842112739558
1.13691055588424 16.3513731889124
-0.868009986355901 4.65869052429074
1.67663883790374 16.9608273601798
-3.1294074151665 9.91470544183
