-1.69937983900309 5.03294419635228
2.30644108355045 13.6477459704525
-0.728184625506401 5.36532190320293
3.06413923203945 10.5211776597269
3.52373827435076 9.29097669061362
-3.63554800488055 14.3054819419164
0.22484390437603 11.6720341907721
3.13935235515237 10.0265081180933
0.41148011572659 13.3478768078795
-0.347082117572427 7.92298361301508
3.65466676279902 3.81775226826476
-0.373326750472188 5.38108379342817
1.42056508362293 14.5111857654738
0.581067215651274 14.3573327555824
-3.17660253867507 10.2302306961896
3.19859976321459 9.57985139573042
-2.03129812516272 3.32151368537582
-3.66352373175323 12.2316315951844
-1.37663424573839 2.57108567495576
3.63602919317782 5.01808894844013
3.11631452850997 10.1686331399534
1.5424272492528 16.6714610669174
1.12405451014638 18.8356475755445
3.95415821298957 3.61305593690596
1.24564639292657 13.5089831388338
1.6682437453419 17.421735581188
0.352528197690845 13.5587472975389
0.753136163577437 16.723410892123
-1.68672210164368 2.21271721110025
-2.82309082150459 7.35629926890878
3.70419386029243 7.54314444962099
3.21839236095548 9.41687564032514
1.52564222738147 15.0859129059356
2.36373934149742 14.269431925925
-3.8030905239284 15.4495779811632
-0.177632231265306 9.16488010795734
2.06767630018294 16.6228006060797
-2.26873651333153 3.98047907238063
-1.45455193892121 2.93815865649881
-2.1469937171787 1.07425805226647
-2.85759982094169 8.61156918549499
-0.683629313483834 4.81304647916232
-0.690205389633775 5.6563743743893
-1.04923639260232 4.38300438818173
-2.78044201806188 7.19856978015156
-2.88955149240792 8.76326930088256
-2.13572720438242 6.30636930346581
-0.272300397977233 8.38334457373285
-1.8722188770771 -0.0299647257274933
2.86262172274292 11.958277072054
-3.63335066661239 13.618225133532
-0.4623994063586 7.04670221592384
2.39139876514673 15.4140099391994
-3.02480592019856 9.40613208232823
0.487583870068192 14.3643939687816
-2.34774888306856 4.17477374148499
-2.97974679805338 9.13192246763662
2.02646291442215 16.3837493453555
3.1603628732264 9.84172635312321
-1.00429779291153 3.15229238098724
1.32092155702412 19.6544241336384
-3.24127471260726 10.5746139358847
-0.928242897614837 2.60893519031552
-1.80493084341288 1.17445887930922
2.51712031103671 13.9026871737166
-0.411869268864393 7.97911092414928
2.48051482439041 12.9603752776585
2.4991160761565 14.7428540550928
2.35473856888711 14.8562139289517
-0.481346499174833 5.11183500433598
2.03580126911402 17.213368772754
1.03376905247569 15.3754580957944
1.68145921081305 14.918643527796
-3.99500181339681 14.3969725255218
-0.197467407211661 8.49215368574571
-2.23904891870916 5.21354315339253
-0.961467698216438 3.4164021601035
0.902168026193976 14.9680172330459
-1.18561672605574 3.70853450352113
-3.11091660521924 9.83011260901857
-2.05104421824217 0.412745302822518
1.34444469958544 17.469715827329
-0.658825762569904 5.43229580357488
2.30556667223573 12.6832209819578
-3.17708284594119 10.2952016498149
-0.520858068019152 7.53538834448583
3.87965583987534 6.4897373413065
3.14440891519189 9.97511362372723
3.09175248630345 10.3036300776682
-2.59957879781723 8.192802768165
-2.95443446747959 8.03888462557105
1.22481540031731 12.1121437234556
-1.25186822190881 2.26514397143104
1.25406502373517 18.5851096055981
-1.43701406009495 4.31320825490995
-2.49847104586661 5.26925085693575
2.25835441052914 16.0883048374836
-3.25124010629952 10.9937415082407
-0.26576766744256 7.90715210548476
0.0920436792075634 10.5983799941457
0.799911674112082 16.3351340796267
-1.33741167746484 1.63194195151366
-0.0910957306623459 9.53361044172731
3.63579061999917 8.00857891720157
-0.136780822649598 9.00180778968786
3.12280177697539 10.1212330151409
3.31550549529493 9.12980804247516
0.869879858568311 15.4780485167799
-0.714481787756085 7.14320995680125
-2.82324247248471 7.70807181574677
3.48239842616022 8.0780340070828
-1.59016880020499 1.08734414063252
-3.51423542760313 14.3139534617134
3.58181552030146 7.79768513848222
1.76477018743753 18.9443793326873
-2.86164563521743 7.609881345428
0.39427724853158 12.6350579808585
3.63272990845144 7.12650244388082
0.683866824954748 16.4131086049131
-0.763917746022344 7.93228333300587
1.18314783461392 15.2896634828608
-1.44143506325781 5.90816432338235
-1.53823991306126 0.214561304816955
-2.24185894988477 4.81657366933415
-1.04408907331526 4.85585297492078
3.8737536277622 1.06372156546202
-2.7663815934211 7.47139180829158
-3.27164800092578 10.7927243299262
-2.86474473774433 7.92280401760355
1.52005681209266 13.8581789876476
0.954051867127419 16.5103042466568
3.13115293718874 10.071068890757
1.38399274088442 17.7989684987663
1.89662190340459 14.770337601402
0.169085806235671 10.8336708152638
1.27870759740472 15.3754220725099
2.57444368116558 12.9354336061653
2.29025241360068 17.2193477907871
3.83857533894479 3.4793219348117
-0.484547710046172 6.88550583559287
-1.50638238340616 3.73090137808457
-0.724200379103422 5.79824360697256
-3.91626310534775 14.9932233544196
-2.52920380793512 5.86482741925563
2.74183455109596 12.9501288736144
-2.15070574358106 5.39362620135967
-2.08720035478473 5.3857204377239
-3.38647067733109 12.2775001284228
-2.03421057574451 4.71980824470698
1.85708164423704 17.2965195421666
2.7796253208071 12.4384551810366
-0.0197818633168936 9.89942960782505
-0.896727761253715 3.60739941877324
-2.02840804681182 3.40964020614408
-3.11122830957174 9.70248830733642
-0.88004451803863 4.4235612996392
0.575482511892915 13.4487968401587
-2.26485789753497 4.19159458572374
-0.441855983808637 8.0206349607597
-2.25607465021312 5.87466961541887
0.0183965060859919 10.1475417100881
-1.16876342520118 4.17124854433679
1.19988127052784 16.4010217141579
-1.00228834711015 4.29525960441556
-1.15643695369363 4.7833042422855
0.269503563642502 10.7888070374482
1.92267488315701 17.2260098623312
-2.23117649741471 3.26866296026684
-0.698031051084399 7.15756939304364
-1.87450650520623 0.491248994016959
1.03978442773223 16.7002997802257
-2.52937207370996 4.43515285418955
2.90915289148688 11.1714935509959
1.97254403308034 16.7496569818801
1.34627719782293 16.6293014851004
0.944142986088991 16.9149363359684
-1.02209551818669 5.01022996381698
0.238685486838222 11.6502043981228
2.99745874293149 10.4944908777122
0.654000798240304 13.3124079622529
2.71814211830497 12.9791156672824
-1.50041468068957 4.4264759722423
1.66632257774472 16.8813441628765
-1.87985755130649 4.22317412198588
0.754745552316308 15.6273431024933
-0.149681596085429 8.60763926911717
-1.87973814830184 4.89853065187802
0.516723478212953 13.1548653038835
3.30550578422844 8.38785826794205
3.21499511599541 9.80916699947417
-1.80666702799499 3.81578510489717
-1.42813794873655 -1.01635090964588
3.8851270750165 2.2920888928419
0.959946481510997 15.990679636064
3.4985127132386 8.15774234298216
-0.267738381400704 8.06059860442182
-0.745339253917336 6.1379027365829
1.27384259365499 19.4720876088427
-2.78122706525028 8.10044342241444
0.582936465740204 14.2639038207381
-2.09019178524613 2.84695640283843
3.69887149147689 7.09911099239811
0.810925807803869 16.3090598602159
0.1202378179878 10.6602123070812
-0.77941326238215 4.19402127159454
3.04197232984006 10.9143277573238
-1.08726508170366 5.55274197838368
-1.69408575445414 0.853964068973315
-2.63483811914921 7.07778640926951
-2.62262602895498 6.23612976566545
-0.14365915581584 8.94004897496932
-1.97628057189286 4.35273091956169
-2.2699616830796 4.23194176678199
1.39501110464334 14.4691878595413
-3.61869098059833 13.0893952143537
1.60682469978929 18.6459672053212
-1.18489089235663 7.5432643256306
-0.728448016569018 7.32107529195617
2.56761059165001 12.5390435211125
3.35085878521204 9.20604696864951
-1.73977335914969 2.27248466113442
3.68883834965527 7.39095502724193
1.8271554261446 12.5836194930751
1.49100065603852 15.7066460399154
-3.57724845781922 12.6243351896133
-0.8382389228791 3.52175179749069
-0.177236961200833 9.15503270495466
0.482026109471917 14.321717832198
1.58609275892377 17.7958133068756
3.32546830736101 8.58760535438696
0.946809818968177 14.2971457361393
-0.572627929970622 4.08994040047603
0.336642937734723 12.2037183377217
-3.53217209130526 11.2755043172275
-1.91314514353871 3.79027149808004
-0.822784373536706 7.70476177337372
-2.41804210655391 5.77679751762551
2.65542050264776 12.8761481586741
-2.77690221741796 7.01701635492268
2.42734833620489 15.907860457188
0.374609252437949 12.0299858038953
1.29854113608599 18.2950031957465
-2.62641204893589 5.1476506007329
1.06444287858903 14.7501346033223
-1.50504202581942 4.31711624210477
1.79643477126956 18.0911244448827
-0.808481402695179 4.67255015588936
3.75485128909349 5.33957378872022
3.7391869649291 4.48070637256254
1.81362031213939 17.5460942325569
-1.94226602837443 1.51749619422203
-2.22569652274251 3.46017544629124
0.744365213438869 15.3300953575182
-1.85982854291797 2.55021939320249
0.248563190922141 12.3574418622462
2.28233337029815 13.7833723467656
-2.65551351569593 7.76246104074445
-0.764806551858783 4.33349416184112
-0.22738977894187 8.47591768554971
2.94485445506871 11.3972322979949
3.4056636467576 7.785946517828
3.05582047440112 10.7287344687294
1.39349474012852 16.373157098636
3.60133583471179 7.17133687771769
0.13155915401876 10.9375692033889
0.612152170389891 15.244095231932
-1.30935035273433 2.41479308061659
-1.22140294872224 0.730084186327489
-3.83980559557676 14.490130171603
0.0225043650716543 10.2081778521155
2.96834730915725 11.5110840043171
-3.94959372840822 15.9453117227775
-3.42354300804436 12.1783706012442
-2.68631020002067 7.16812545059177
2.16267259418964 15.6282879049594
1.88147444650531 17.1017124465
3.77500508539379 5.7988348340183
-0.26822098530829 7.64494482371297
-3.4049238935113 11.765178630951
1.19054499454796 16.3692996831257
2.06874535605311 15.298937389526
-2.90315135195851 8.41202864120103
-0.827323243021965 4.9483840803036
-2.20011736638844 8.08198316278171
-3.53633151575923 11.6422311624437
-0.832858493551612 4.92825759354399
-3.4805736001581 12.1512558003078
-2.19290853664279 6.26322579830631
-3.56296712718904 11.2339672796977
1.36225631646812 16.1549564810184
-1.61806573905051 1.70228730057172
-3.19422734156251 10.5548542614966
-3.42476722225547 11.934346256361
3.04352455027401 10.9777753049935
2.03397921659052 16.4109935053335
2.53284710086882 14.1350031115498
3.85712298937142 4.98169319764722
-3.17120284028351 10.1556926440727
-3.20766536518931 10.4553431793055
2.39065288938582 16.0159976209084
2.2766021322459 14.1864075357674
-3.92456075921655 14.4839916073698
2.23252706229687 13.7114880002173
1.83512521535158 17.4409660869676
1.04105482250452 16.7737155504531
-0.152713360264897 8.73790289221325
-2.74690518900752 8.24644407063638
-3.93427584134042 15.1384288393949
-0.380332846194506 8.10231736718584
-0.0616533700376749 9.56874716931257
-0.883303107693791 2.514860329642
-0.282672464847565 8.3284282944915
1.70623200573027 18.356138921745
-3.55758458934724 12.2228039253092
-1.16173521988094 4.45563147462174
2.42249818332493 15.1889005448908
2.68567069619894 12.4840189265335
-2.09800476022065 6.89395073715179
-1.16811117902398 1.23197543845961
2.85508336126804 12.1819166872838
2.83010699041188 11.7875723920875
-1.63283635675907 6.99395195429209
-2.82361340336502 6.62202251386174
1.63193649053574 23.7549926347435
-3.16954649426043 10.2072496393268
-3.73017781600356 14.8298932442964
3.99523622356355 2.87838574986015
-3.72100156731904 13.0641887882884
-1.29286972992122 3.94405452846952
3.32051009312272 9.36898132355724
0.937882157042623 14.4563338015201
-1.70971721038222 1.8346110020199
1.90237922407687 16.0689372716198
2.67243447341025 12.9712437812774
-1.48583375662565 3.24955710440106
-0.0594676174223423 9.80549703556168
1.57899012975395 18.674968648529
1.13169883191586 13.7228360368726
1.15138331986964 16.0123109537309
3.82282723858953 6.14410522519118
-0.682117324322462 5.862553783004
-3.04476176016033 9.04094449298849
0.20823728106916 11.2064840896312
-2.19941319338977 5.60491261940384
-0.108705887570977 9.57029692590224
-1.03828161209822 5.35753958471508
3.86680144630373 6.90399933009624
-0.893447078764439 3.9095693406775
-2.166041277349 5.63307608363684
0.986380370333791 16.345404229339
-2.9076784234494 8.44537150134597
3.73975595459342 7.67267180657185
0.120574463158846 10.6517850436378
-2.69543736614287 6.21564472755707
0.975218361243606 17.2899476889827
3.88763332180679 2.52633374746713
1.35017213970423 16.8233402508975
-0.648672824725509 7.57844039054537
-1.41324005462229 4.60450265453968
2.68204255960882 13.4671804630072
-2.84946365095675 6.88961133761016
-2.45747242495418 5.43701016260275
3.17390946112573 9.70012722717755
-1.53504356555641 1.4692925268243
-1.09359565190971 5.85720565688578
2.27157182991505 15.0888192531644
-2.4529705606401 3.89276368179253
-3.8578735049814 15.7465497337047
-0.747137069702148 4.61287446506722
-0.134658645838499 8.93212848013554
-0.625240398570895 6.47818591588308
-1.25752958655357 5.85102318693563
2.93186651729047 11.9967390027963
-0.359135592356324 8.53805944886797
0.270118989050388 11.3668413375483
3.71074665524065 5.54963960236242
2.19673233665526 13.6271026897315
-2.32898921146989 5.71884539507205
-1.52970533818007 5.3695109850813
3.77073960192502 5.15034775522426
0.679200747981668 14.9579215241813
2.08658900298178 16.8233108986789
-1.01832484453917 3.28811057670834
2.15355128981173 16.7751921713801
0.301417464390397 12.4577351747038
3.31196359731257 9.48072946166041
-2.5176284648478 6.08409530673765
-1.74225266091526 2.8810090625216
-3.24030069448054 10.8326653359175
-2.31610336713493 6.60116090851945
3.81679197028279 6.24918272151011
-1.62958259694278 5.15566863356834
1.80786421522498 18.8595554173757
2.28550267405808 17.2191306733687
-3.15665803104639 10.1291860496312
-2.0832429677248 6.02993271386528
-1.83564102090895 2.37167988897423
-3.19153204746544 10.4642881863524
-3.05668926984072 9.37790682960313
3.92989244684577 5.83883022008464
3.88843437843025 6.72038201209759
-2.90346022881567 8.66265694936845
3.24247665330768 9.15102028443666
0.610414700582623 13.517588630962
-0.836409127339721 4.46641861638976
-0.401580126956105 6.25156791749799
1.652015209198 18.1297819019693
-3.33997803367674 11.9175240021232
-1.28549935854971 6.54855067229303
1.44630040973425 16.3888148048361
-1.46440601535141 2.91017855567647
2.65254878439009 13.8320960571172
-2.27862333878875 6.45823587623497
-0.0164085105061531 9.85869018233921
-1.79160261899233 2.57009776021088
-2.46381345018744 5.27970064393994
3.60497011244297 6.41663947594052
-1.42619569785893 3.3033434063491
-0.172348929569125 8.48206468926002
-3.77605942450464 14.9177109852713
0.379675744101405 12.4829942808238
1.15392176434398 18.303068350089
0.770108357071877 15.2808575108817
-1.42450099438429 1.75155915590637
3.12891449965537 10.0736789524892
1.01005557924509 18.6048432740229
-1.57676067762077 3.00810225361337
-0.89436268992722 3.21901508417383
-2.71619926020503 7.19387797982024
2.900415180251 11.538346228134
3.62480971030891 6.01864039680009
0.509157467633486 11.8672756607964
-1.36362069286406 2.21341621739317
3.97293774969876 4.24656670929654
-2.12144259363413 8.62854102458602
0.901375722140074 16.067018562177
-3.13457176461816 9.98130237130593
-0.103739440441132 9.13847565461264
-3.20443341322243 10.382584831644
-2.71067389845848 7.6566180030738
-1.73605703376234 3.10887755075094
0.670978687703609 16.0596675668794
1.85366127081215 15.5016679017679
-2.67583271116018 6.35499599907692
2.93174210563302 11.6003318369611
1.66859309747815 14.6187868574198
2.08319628983736 13.066146245651
-2.82332713156939 9.05660090309363
-1.13554429262877 2.65290237252865
1.38665985129774 16.8133536103625
0.190580813214183 12.0271092928842
-1.20158565789461 2.401679432204
-2.07575438730419 2.38633785970533
-3.53446562960744 13.7016303106742
-2.10704206302762 4.84343931358982
3.12062330543995 10.1681659543699
2.49461932852864 15.266791304805
1.98013057745993 18.9341500714916
-2.76070619374514 6.83077388241492
-3.00206329114735 8.90931670874457
3.79780646786094 6.78859430438759
-0.510960031300783 5.86336406284828
-0.287866985425353 7.72858800961099
-2.67761535011232 6.29977608056663
0.679492458701134 14.9312236962231
-1.83377584442496 3.63045959426663
-2.15922463685274 4.30517771683714
1.52966265194118 18.3676442924583
-1.73718080297112 2.75814739983811
2.48318452946842 13.2671915582533
-3.24866714328527 10.6860714308422
2.5762405693531 12.336646052411
-0.580573754385114 7.2213148952248
2.04709807783365 15.9638456519413
1.2990840524435 13.2788612701919
-0.443780824542046 8.44447562818117
1.01716947555542 17.8300975713261
-3.99627720750868 14.4105861647858
-2.26205188781023 7.46013432630505
1.63897796534002 16.75853371604
-2.27866809442639 2.67441020980927
2.5114697702229 14.9051671300964
-1.53788900561631 2.12150130964537
1.50194148533046 19.3452950074581
3.46144863218069 8.28415723045251
-3.07376268133521 9.42664049723665
-2.97835449688137 9.05322031740817
1.42579085938632 16.9280481436396
-0.5684112329036 3.84787768326438
2.67520782351494 14.0194531893224
3.77150453440845 4.97165906427478
-3.43608817830682 11.3883997529915
-0.321718454360962 8.28383017910495
1.61268094740808 21.5580872443152
-3.30447865650058 10.7805728496884
3.94355212897062 4.66065956532214
-1.97520804777741 1.92351988184419
-3.60369251482189 14.0291840997
1.49059957452118 19.1487248758473
2.29541882127523 14.9969623750036
-1.17115139216185 5.06419015090409
-1.06846844032407 4.40335093311797
-1.70319895446301 4.84967193041852
-3.36021670140326 11.7902120521682
-1.07636584341526 1.86596564506092
-2.57588948309422 3.96751932882941
0.288429765030742 12.1994108620574
0.0315896961838007 10.1658321333159
3.5602808278054 6.32103828696316
-1.26942972838879 1.58751185320122
-0.282289806753397 8.18284212100923
-3.33975054696202 10.7646753802109
2.88085476867855 12.1970765511416
-0.834714880213141 3.13863481543841
1.8871948029846 16.0916166067362
-2.62605275213718 6.02022704781164
-0.361906949430704 7.7169545275718
2.16163807548583 16.9465919864592
-3.49880001321435 12.3655911139822
2.52065196074545 13.6715384020097
-1.59085980430245 2.77821278785565
-1.08263177610934 4.31823814442306
-1.50309766456485 4.19536142281147
-3.70104028098285 13.3796799086596
0.150439387187362 11.0466644315775
1.4321073256433 17.3437921829772
3.22586848214269 9.15278037521237
-3.79578641243279 12.606900852696
3.91262616589665 5.4000819312575
-1.57689900323749 1.73710761287096
3.51310720480978 6.1794878941367
1.50086065381765 17.8328344206322
-0.423704041168094 7.13333078295954
2.53182511031628 13.656476901045
-3.68400641717017 14.0411693093678
1.91225348412991 18.4597887577177
-1.21024405024946 3.79415832777863
2.63400658778846 13.5616822638821
0.284331133589149 12.085316536434
-1.80363709107041 1.76970022628127
2.40758569538593 16.1778677716232
-3.26684244163334 10.9442049528642
2.65686219371855 13.19080273137
-1.78515942022204 0.434731067425853
2.02488079667091 16.5863623935901
3.71322056092322 4.50574516914392
-3.34826751984656 11.4110328040512
2.83491797186434 12.4839055874251
2.4179057367146 12.5875728047902
-0.918611163273454 4.61533287670577
-1.37922080792487 3.17085337815245
-2.36049037612975 6.1394070061352
0.555061301216483 12.5971462258152
3.10444152355194 10.3304322663234
0.237712731584907 12.0788948097372
0.695669254288077 12.8215823322499
1.32588114030659 17.6145341302699
0.239139668643475 11.1310178157615
0.0787431951612234 10.3852742013784
-3.8707161527127 15.3635902343663
-3.61832012049854 12.5825207772028
3.43480546027422 7.40250438677586
2.15428430959582 15.906121908855
-2.39135507121682 4.49620573002146
1.20209200307727 15.5526928605645
1.23013345897198 14.4276046846841
-0.837969908490777 3.43714784713199
2.49843862839043 14.4836096424681
0.376187341287732 12.395983664631
3.08106121234596 10.4318380910212
0.426511900499463 13.9929344588852
3.24838489294052 9.40270870326799
0.699690936133265 13.5426588940163
-0.612290792167187 6.68903438012835
3.59668258391321 8.3165422780688
1.67230322770774 18.5947865375857
-0.693556735292077 5.27911142320605
-3.85308733023703 14.8413185756856
0.533872662112117 13.5179799010363
-0.079492375254631 9.52516155964044
3.02939216978848 10.5993680345829
2.50282150320709 15.189234830029
2.83279982022941 11.2605014098798
-1.05683241784573 3.13755514079749
2.9915993027389 10.8091385181898
-2.78929462842643 7.38978534182139
-1.74550664238632 4.56539134497376
1.333641262725 15.7866850394754
3.81906861439347 3.39402359555488
0.661917893216014 15.1239101296131
0.212720636278391 10.5721786573147
-3.51374220103025 12.6372625689062
3.75231090933084 6.50399750048293
-3.03810297138989 9.51170310010838
-3.29309359192848 11.1197769685039
3.04611291922629 10.6921235567038
0.0669650379568338 10.4244409681971
-1.30004002153873 -0.546653807299796
3.15467700362206 9.96725577999235
-3.74422697536647 14.9179331387134
-2.10216242074966 4.46353335772471
1.49192280881107 18.2871824212965
-2.19345261342824 5.05126855525661
-1.45204329490662 4.22866412769981
-2.60812946595252 8.17989038290319
2.41143666952848 14.3895027544963
-2.8297435361892 6.33121330201269
2.58173913322389 14.7686212457599
-1.35201737098396 -0.104406049043827
-1.00664489716291 2.53833215429012
1.03796339035034 18.000870757882
-3.2269300557673 10.7505483215163
-3.82405027747154 15.0145767454647
3.94435824267566 5.80304172036793
0.671510765329003 13.6920347163469
2.25458452105522 12.9444012838793
3.13516898080707 10.0448906585722
2.03892362862825 17.8521006152793
3.83362984098494 4.21629668789024
-3.6468234565109 13.4801561920906
3.22720707766712 9.49508602768564
2.92400651238859 12.9317829670135
2.20326073095202 16.8343937186476
-0.985468665137887 1.79709484231537
-3.66313561052084 13.1510523536051
-1.08471134677529 3.87794167188751
-1.8099898416549 2.32762452657832
2.80373984575272 13.4316413896747
-1.10078630037606 4.31445259462463
-1.56417767517269 1.29295938261697
2.0730827152729 12.4632453061241
2.75867699459195 12.2363384517333
-0.336627511307597 8.54137570603529
1.837053315714 18.9015988954629
-3.16737091168761 10.1719501328889
-2.24013457819819 5.12266101469416
3.63160998187959 5.41680223081939
2.01630032993853 18.331390153705
2.55164306610823 12.8950611731866
-0.65778318606317 5.19728702815484
0.750707944855094 13.0991129894578
2.39058846235275 14.1275183371528
3.10726920329034 10.351168235147
-0.918467253446579 2.13254268215091
-3.27742332592607 11.2482456052766
1.00594909675419 14.9482414900442
1.96508973836899 12.9887458191426
-3.31697234138846 10.8110977225333
-1.59585911035538 1.09768364709303
0.916497258469462 15.0932064460922
2.02345646359026 12.4053978158894
3.33645706437528 8.71434607685078
-0.193995954468846 8.10679421168362
0.53695572912693 14.2389550057125
1.8929627686739 15.0818495293
2.85957939550281 11.0876034746275
3.27317203581333 9.2984858021155
-3.54894219711423 12.8005981416401
0.0232664328068495 10.2041712221018
-1.19564181566238 7.09688145894694
2.76444898359478 13.3314863385073
2.45148131065071 14.4633103866242
-3.0613501816988 9.34756243557611
1.70149243995547 13.6619886339899
-2.11784913577139 5.16029844649751
-3.40034599043429 11.561744752599
3.48516917787492 6.93871917419315
-2.74265739880502 6.48217545284915
1.17645880021155 17.2661546619394
-2.61185803078115 4.84163872085887
-3.83940792642534 13.8354662935532
0.170510770753026 11.5314263795266
-3.30977685377002 11.1597149464746
-1.73598123155534 4.41180065555578
-0.63652079179883 4.7414754211095
0.698224993422627 16.2757192696362
2.45355543680489 15.5605721455193
-2.38403832912445 5.89004306912644
-0.324602626264095 8.06713547316122
-0.41485508903861 6.06803413200994
1.86998206563294 17.3633430800845
1.71803848445415 18.565451163934
2.64977583102882 12.9857078454211
3.09252896718681 10.4670004334175
3.62115659192204 7.51656043907769
0.404933774843812 13.2504295762467
0.178686128929257 10.953673341734
-2.63441395759583 8.99221833646143
-0.165827520191669 9.2878802231298
-1.96943362802267 3.29764760715952
-3.68175490386784 14.5080564946038
1.07840407826006 13.0819208801056
0.316487312316895 11.3996494907349
-2.87917160056531 7.26854845608509
-1.73030578531325 3.94564505257798
0.664244761690497 14.9387450364498
-2.67979286238551 7.3506420418574
-3.22959111444652 10.562712651622
-0.571095269173384 6.12180278799779
-1.15390747413039 3.5794821548276
2.75946831889451 12.4666384901371
-1.91894021071494 4.3031716210358
-3.81484406255186 10.5638457064286
2.89919631741941 12.5772724004377
-1.3232963103801 -0.258427735861977
1.05431097373366 14.1720075579376
0.371410069987178 12.418485600399
-0.988444054499269 1.85662060140448
-2.51301587931812 4.71006350787722
-0.56847527064383 4.85705452386056
1.04618878848851 14.2034060406988
0.166738810017705 12.0172552621535
1.27697069756687 14.5302340833123
1.83488745056093 18.2128673612137
-0.105417013168335 9.23371621916298
-0.924347074702382 5.05691198891271
-3.94533192925155 14.4933681881061
-3.97052617929876 13.6987408023014
3.95949152112007 2.5238798522299
-3.13690495863557 9.96634703715959
-0.650646733120084 5.44607485872119
1.74307637289166 17.3094342838239
1.94031305797398 15.8278190085525
2.97599058970809 10.7800451576162
0.86294368840754 15.7038610704812
2.04962681047618 12.4963866617427
2.77793038450181 11.4807288510725
0.902237191796303 13.8036786865442
2.3457933422178 13.4596956145706
-3.81716253235936 14.511454229188
-0.664683602750301 3.71040253090492
2.99905909970403 10.5638520856104
1.17877612449229 17.2705277566069
3.39583189412951 7.78694824243356
-2.62219923175871 7.50784030939105
-1.47349768690765 3.1382078003751
2.43405023403466 15.6204180601909
3.91170728951693 5.48225710690876
-1.42091558501124 3.51489821427041
-3.99046697281301 15.7156796774828
3.93736495450139 5.08491788531009
-2.81318086571991 8.10065995137357
-3.60508562251925 13.0055842349505
0.778827860951424 17.5623047586497
-1.42937245219946 1.33999342759621
0.223432002589107 11.1457348229166
2.36337616294622 13.1661824755318
-3.44853922538459 11.8975085663112
1.56016557849944 19.6570036936408
3.58905205875635 6.71799403851355
-1.77784546092153 4.52255213521423
-2.00474731810391 2.04789542909956
-2.72451615892351 7.27242877564975
-3.42695955187082 11.3396033574992
0.459500664845109 13.5135826276807
-0.0813035871833563 9.18393809323423
-0.0456611048430204 9.64082050251467
3.10697268135846 10.2555828390325
-3.70636512152851 13.0440917579362
-2.3700494915247 4.32668121263143
0.110249113291502 10.5346003515676
-2.10928088799119 6.82900549223894
0.60348535887897 13.923402654442
-0.141936708241701 9.01956295837786
0.554821509867907 16.1793238931036
-2.84678147919476 8.67292751011663
-2.83432989940047 7.77946343634292
-0.701735096052289 4.44179940663088
1.4640822596848 19.0494131874704
1.22742256335914 16.5711725018452
3.32789066433907 8.9787794546561
2.50490505993366 14.0835252380437
1.40712000988424 20.7341063177615
2.45999287441373 15.0185392098534
-2.97548464313149 9.51867256479845
-1.99377172812819 1.02087440803978
-1.34762406721711 2.11940151601368
-0.741845680400729 5.31581734263144
1.0829406157136 16.1518206090085
2.46889635920525 14.1750128956844
-1.9295903891325 2.96530921236636
2.55573711916804 13.3131985464187
-3.87617864832282 15.063310024783
1.23520613275468 14.8507100318844
2.4937566742301 14.4657979045664
-0.3090485855937 7.19763836508038
-2.37266318686306 4.42426641683669
-3.8498542625457 15.8985394203533
-1.73493842221797 5.24650024654565
3.32218100503087 8.72305879476044
3.46957216411829 7.34741291165211
0.340252909809351 11.6232376480849
-2.2446196321398 2.08272262391601
-0.0845775678753853 9.58349709538909
2.40918988920748 14.9006208701231
-0.738954737782478 5.08086754770261
-3.17030746489763 10.2079625770069
-1.75547860190272 3.53272996010811
-1.10827023535967 2.93018047022436
-1.92604127153754 5.37063064304109
-0.234545331448317 8.97249298288286
-1.07323621399701 4.99915612959845
-3.02982356585562 9.23203179679857
-3.62405055575073 14.4138616990089
-1.89762956649065 0.363713058260832
3.74912934377789 5.63932339780867
-0.0920361410826445 9.28651484855492
-0.177423762157559 8.85054333153446
1.99034304916859 16.4806869597155
1.34112185053527 14.0808573545239
-3.60467522591352 13.3859884932802
1.56084195524454 15.9285990922864
-1.09390746615827 3.18633348112204
3.07306885905564 10.431912459847
2.20237783715129 14.5816901326046
-2.88637086935341 8.34341361864397
-1.6399258300662 3.74877657069706
-2.99133771657944 8.62447332031988
0.719212990254164 14.887199078117
0.493404870852828 13.7250712518488
1.50976896099746 14.5098816114566
-1.50983352772892 0.0249213324261768
0.844694731757045 15.4727236078209
3.9282745514065 6.25642078359026
1.94563932158053 17.0891318756256
-3.39314295724034 12.1756524931773
-0.390648748725653 8.38825773991803
-3.57170452363789 14.3282636103727
-1.28355588763952 3.58990686277678
1.87161719053984 18.8273011399012
-3.96714447624981 15.2506676771939
2.17527585849166 15.212552352733
-0.29619831033051 9.02797232272932
1.76672280021012 14.7078272518396
1.33204573765397 16.7211041352452
0.576589765027165 14.7188153495606
1.63050360046327 13.2308751569304
1.25776848383248 19.2770433317289
-1.68518283963203 0.266048945447727
-3.22208435460925 10.3789774300927
3.69937056861818 5.79490502588188
1.89067223295569 14.6825065414507
0.901787748560309 15.2946356008767
-3.04056895337999 9.10672145263089
0.402072371914983 13.4188922576375
-1.89794977754354 4.97954392008685
3.18688664957881 9.71806307229111
-3.92656043358147 13.5677072333265
-2.11012051254511 3.41091346616406
-2.95964323729277 9.2975903537767
-1.39013482630253 8.28699125397637
1.81119110621512 19.6538013068003
3.93396188318729 1.77835693139435
1.7210682220757 16.0213018715702
0.0355184879153967 10.3026321934261
-0.511618625372648 6.58022179235213
3.59060200490057 5.68156644632734
-3.03854809887707 9.16596291063766
-3.39883858710527 11.8845581354565
3.11217194236815 10.1000667931622
-0.604383239522576 4.79142796013628
-3.66111456975341 13.1268831214256
1.1795371491462 13.876151653129
-0.251046700403094 8.36133394961722
0.94340898655355 15.4616778208439
-1.83347653970122 1.19437084917986
-2.74163770675659 8.18347605188926
-3.0859658382833 9.6728209659187
0.0614629052579403 10.6127826979899
0.384258300065994 13.6427518852582
-2.87483048439026 7.54146453372792
-2.64184759929776 5.05317700226978
2.09588258527219 16.4100530716799
0.2191595248878 11.268851416716
2.88791486062109 12.0354345545915
1.38843990303576 18.9662707153322
-3.89567176252604 18.0971562476008
1.54559121094644 13.0690601927581
3.13370985724032 10.0594866811786
1.05480140261352 17.2276994095019
-3.14164276048541 10.0003452767309
3.36852163076401 9.12607322180311
1.40289904922247 18.3637166236309
-2.81125029921532 8.23485100170696
1.96273473836482 17.404196935396
3.5407908950001 6.57374782138159
-0.633732995018363 4.33429265419689
-1.61821537464857 6.12009379816325
-1.92458663880825 1.4040449503503
-2.21694946475327 5.61991507328969
0.525234747678041 12.2172425697675
2.05320106260478 18.5298390995582
1.35682836733758 19.0806138520025
0.372182354331017 12.369114224074
2.49170926213264 15.1548413973487
2.07333441637456 14.626625237768
-3.83945227041841 14.3039546127453
-0.952770398929715 4.44760621851042
-3.59295909106731 12.8084536112192
2.38322349824011 15.8239048736039
3.38959370553493 7.52700806245974
0.340786963701248 12.0349385932858
2.81891680136323 12.1990257696645
0.66850290633738 16.3676460188698
1.34658914804459 16.1831822388405
0.090516772121191 10.1619777455344
2.10200471431017 16.9216780015888
3.22689830325544 9.55464251886088
2.56379609741271 12.7324941326413
-3.42854520305991 12.7854844645514
-3.9688292555511 18.7562097179998
-3.58241107314825 12.0994501312262
2.93248143792152 11.881196101267
0.609961351379752 13.901987968733
-1.48925942368805 2.74058337748713
3.67572627030313 5.19186084693548
0.729550056159496 14.9505827491347
0.251274686306715 11.3171067718702
-0.928506627678871 5.14825366622907
-1.44357416406274 1.69539275493819
2.46709004230797 11.4539225599522
-3.66464401222765 14.5908866942601
-1.09005844220519 6.57246203321669
2.8527757357806 12.0062211458787
1.58357262797654 16.6187418066463
1.4758917838335 19.5430008003044
-1.21587957814336 3.08211331670963
0.43745463527739 13.0518161578971
-2.90205105952919 8.00792297732587
2.27945245057344 14.0588598334401
3.09490057267249 10.3084386136682
-2.36723293364048 3.45831865576511
2.16498369164765 16.9328835633709
0.770903686061502 13.0999953603352
3.66135793924332 5.88954917024479
-2.73049281910062 8.30369420682877
0.207794193178415 11.1972488430197
2.98521094024181 11.4674055345382
2.95764856226742 10.4568890076182
-3.81049085408449 12.1344423099426
3.80711754783988 4.07057270597907
-0.0782064143568277 9.58042715066082
-0.886637415736914 2.64771988322197
-0.65956032089889 5.91681101831014
-3.25659343600273 10.9014046093778
-2.7055263184011 6.35633877415425
-0.756668038666248 6.0885996536569
-1.26548444665968 3.90473641124923
-0.677940374240279 6.13035846067535
-1.56758024729788 -2.63210322378452
0.482244299724698 13.3633869763941
-2.75300679542124 6.98957009334866
3.65263811312616 6.90969209609382
-3.64826699718833 13.1622362219108
-1.02273805812001 1.67159662984917
3.70092273131013 6.6453064919192
1.16342012584209 16.4641215864828
-3.50989908538759 12.7916915442149
-0.720432572066784 5.95165604563186
-0.592758927494287 3.90057224917926
0.0652646776288748 10.2702049138529
-0.403200713917613 5.6751297251998
0.986091068014503 15.2507564031628
-2.88017655164003 7.48936650774972
3.26357120648026 9.63477093257672
0.555546198040247 14.7003401061517
0.386244591325521 13.2973112454224
-3.06537901982665 9.66060148292361
2.09622665867209 14.7263906805494
-0.173044426366687 8.7280822666265
2.25575131736696 17.1928136859962
-3.6317876111716 12.5743235545156
2.55875734239817 13.6060386146468
-1.84473242051899 0.235491143596896
-1.73719668388367 5.32023960106224
1.14577247574925 18.1041377012419
3.5849507022649 6.61215229502686
-3.94401236437261 13.4430293709669
-1.18705862388015 4.74768765113966
-0.647634200751781 4.83178588180643
-0.336985623463988 7.52085988572076
1.69354063458741 19.7760873264648
3.35878446139395 8.75093694583707
1.01688560470939 13.0370633091382
3.21745422668755 9.31065103262425
2.05863327346742 15.1081911466753
-2.89713307470083 8.24752343468858
-2.77396097593009 6.24848627232674
-2.469502504915 5.95346653110964
-0.534518875181675 4.85523950967596
-3.30224558524787 10.7687363688739
-2.20975999161601 2.89515838498411
0.57718943618238 14.0890381744985
-0.798646572977304 6.04077722239489
0.523723045364022 12.2204688782802
2.63699102960527 13.458319374074
1.13691055588424 16.8144150834855
-0.868009986355901 4.23528214919568
1.67663883790374 18.0285308139017
-3.1294074151665 9.92592741694247
-1.8110181260854 4.19482967580431
0.750935461372137 15.0995967934956
-2.71852149255574 7.57077331797319
2.82744191028178 12.9165665881868
2.78191326186061 12.5864017687441
-0.176905499771237 8.98466550921243
2.18953697942197 12.7584422744746
-1.63679935596883 4.29980096235814
-3.47497510537505 13.6297707440799
-0.475735001266003 7.30770567089351
-0.303209137171507 8.40914144661313
-1.27252503857017 2.06084405855332
-2.51887745037675 5.40253784024188
0.0559818148612976 10.4757792180585
-3.84647175483406 14.1753689038296
2.1894883159548 17.531577356647
0.47732063382864 12.1384113390994
1.13170111365616 16.2474764301469
-0.252543050795794 8.60281302790495
-1.76620951481164 1.79762310254099
-0.310267437249422 7.78342120439644
2.3419067338109 16.6115866040671
0.684524610638618 17.0293334433882
-0.841928113251925 4.5686612574661
2.48989879712462 13.5972115793119
-1.45149524882436 4.68508200278504
0.651578705757856 13.9260670955764
-0.35608833655715 7.60825344171375
-1.84957240149379 -0.559559364867058
0.441417638212442 12.0257914527852
-2.15015292540193 5.97193613187341
0.345863183960319 12.0964534514164
-0.419438870623708 6.67069893942782
-2.95769490487874 8.41965722327216
0.97380786202848 14.2874435088843
0.383954266086221 12.7173029479958
-2.80604629032314 7.72325225489755
0.476366953924298 14.306008051031
-0.584915388375521 4.93234924051475
-0.418159212917089 7.41106851392735
2.66635817289352 13.2449173119834
1.75669826194644 18.1623419321782
-0.344905955716968 8.75136153790869
0.170114103704691 11.080009121533
-2.0603433791548 2.80747498504476
-3.39311332255602 11.4816985051921
-0.86963927000761 4.74289259621368
-3.89513427205384 14.7608331002386
2.93999574892223 11.1118388758564
3.94092538952827 6.40763006855514
1.6708431057632 16.5672608631812
2.61372392252088 13.176262051068
3.13517015613616 10.05567104632
0.315285861492157 13.1194147926036
0.442508734762669 12.9872448156317
-1.78848093003035 2.3866723886478
1.27358340658247 16.558438803776
-2.05251806043088 2.73076172515087
-1.69387036189437 2.61926287607876
1.7262476682663 17.3830774132608
1.82026906497777 18.9402237710389
-2.61565569043159 7.47725243524262
-1.54950992949307 0.106513819273163
-1.04074178636074 3.35812945652484
-3.37822756543756 11.7258097077276
1.70520151033998 15.8264901892809
0.40738183259964 12.6435886922601
-2.91307682916522 8.24497146478003
3.79330955259502 8.25763513408947
0.495705271139741 12.7573346312785
2.3072750531137 16.0541183871966
2.79131267406046 12.2000163837221
3.02433419786394 10.6316221977009
2.40381099097431 13.8533391567458
1.12118789181113 16.7289607921963
1.03142208606005 13.2007404283681
-1.82872796244919 1.546745132948
-3.76048139669001 11.5443828500499
-0.641086280345917 6.41559617389957
-1.1565226316452 5.0333252972316
-0.861349968239665 6.58362400586565
-2.62450534105301 7.60527530298557
-1.44286304526031 2.56113885840768
-0.691559486091137 5.68859509297317
2.07468557357788 15.603059160871
-1.82487835921347 7.71724762738755
-3.07534034363925 9.7119232966263
-3.76530708000064 13.9349987079968
2.45484238304198 13.3247955532594
-0.158988507464528 9.14405133480474
2.44998352229595 15.8031884368497
-3.36795454658568 11.6498519331154
-3.07730072364211 9.68439558847014
-2.96466968394816 8.9329724262282
1.90998833626509 16.0638251506656
2.05678826756775 14.9864340289557
3.93964246846735 6.36854495347207
0.996423898264766 15.7897515088446
-1.69047913141549 1.578288841261
-2.40070580504835 4.96917796469354
2.40734278969467 14.4220042477105
1.82210168242455 17.5313970947936
-2.26361620239913 3.39210624056198
1.95390804298222 16.23188653284
2.93322966620326 11.6365844315095
0.235246051102877 11.0975504071359
0.78910837508738 14.6137110877489
3.50105865858495 7.83327943129603
3.60579278692603 6.69084494244702
1.28425841033459 17.4000987007736
-3.42170735262334 11.8669088457152
2.61065262928605 12.7684730207977
-0.163647376000881 9.16250873166451
-0.87016973271966 4.22310769526127
-1.60701779462397 0.29269774315752
-2.04553400352597 5.17428809817538
-0.625518945977092 6.3519868476421
3.50216141529381 7.29702216225145
-1.88411906734109 4.39603436905333
0.54855003207922 13.7769417269867
-2.38252345845103 5.24779045740111
-2.45755498483777 6.55757711180949
1.74889396131039 18.5258572890111
-1.49185683578253 1.33445403482365
-2.89287898130715 7.77269901872328
-3.53575441800058 13.6621490839216
3.4487971290946 8.18947649148103
0.546704096719623 13.156177256703
-3.05783711560071 9.37069069478645
0.518355851992965 14.0925190772465
0.322049463167787 12.0005882043681
2.55746014788747 13.3934025917679
1.6238360311836 15.7553519371966
0.541986988857388 15.1400304058031
1.77047413028777 11.9442528930357
2.01955370791256 16.0049370963836
-0.948619225993752 4.24961465171805
-1.69591774977744 5.15737460472629
0.253466617316008 11.9486290097632
-1.92283142916858 7.1221933913227
2.65432254225016 14.1717706522447
-0.757088921964169 7.47716096902727
-3.41894459538162 10.7104076811669
3.63006899692118 7.43168515531261
-2.26252973638475 4.35935999154744
-0.754997866228223 6.09601136190237
1.00534652359784 14.9659684252566
1.02723843045533 16.5614810566623
-1.37409068644047 5.21195138912995
-2.88872406445444 8.29167963787649
3.3172573633492 8.60262121991489
0.792927738279104 17.3150203828135
1.99685676768422 17.2473855576597
3.35163796134293 7.82539990294274
0.230123167857528 11.8034114162109
-1.02417003177106 4.02555626258913
-3.47353343106806 10.8104370486349
2.83495938964188 11.3736266257865
0.0832904111593962 10.5292873560944
-2.32001553103328 3.83137535426692
-0.993252506479621 4.67576452852532
-2.34107600152493 4.19561777583648
-0.32607346214354 8.43925150909961
-2.06798199936748 4.32938234170326
-3.05047742091119 9.32358509940085
-3.42024680227041 11.7277270458432
1.52791879884899 17.2190222800281
-1.70433904603124 4.39187702391772
-2.80470003560185 7.43862397435728
3.77945607341826 5.92817082574094
-0.715884877368808 5.46775831752945
-0.785489166155457 7.80605403164053
1.18845078907907 15.2444957768877
3.33044591732323 9.24518102807937
-2.26670288853347 7.09238012599519
0.383990975096822 12.2523257699424
1.76040366292 16.5587150414334
-0.822031958028674 4.4567943835018
-3.24798885919154 10.9751436213713
1.07917124032974 16.9545053746344
-3.98016951791942 16.7111855278146
-2.31581408157945 5.62822492475154
1.43218247592449 16.3230842755378
2.92951304279268 11.9302953125465
2.39757692441344 14.7423708218518
-2.92002881318331 9.20019752259877
-0.900013938546181 5.84292508952216
2.30777543224394 16.675763121859
1.54330933280289 15.7763426834221
0.754183771088719 15.2494724259502
-3.00913878902793 9.07177494576295
0.440624821931124 12.5621351385008
-0.404708897694945 7.51998678351606
2.12933222949505 16.6006064260415
-3.79121822677553 14.4877615755049
-2.43862854503095 3.87824262799899
3.04987651854753 10.6045112066186
-3.12158725224435 9.89690736227045
3.74840742349625 5.81900971837982
-0.918411256745458 3.31656168246902
2.86873125843704 13.1163422355085
3.09907803684473 10.2580979379428
-0.0872680116444826 9.44678718185695
1.74473447166383 18.6327303252697
-0.106355419382453 8.98488488775826
3.90967088751495 6.05196401788847
-3.4819909632206 12.7807884228819
-2.73869777657092 7.69859592465045
2.28278894722462 13.8425743220357
0.337506318464875 12.7307792783524
-0.667621238157153 5.53429231341201
3.99106119200587 4.15877307933432
-1.95461506396532 4.58584383323221
0.063005369156599 10.6667827252254
-3.36823057942092 11.8719029454051
2.50934691540897 13.6941930888974
-0.942566718906164 3.19937007573725
2.41746166348457 13.0281986835139
-2.4166109059006 5.54083775398925
3.57119816169143 5.91538332283788
-1.23462020605803 3.74837641088094
0.176401978358626 11.5479809556491
-3.10649594850838 9.76994776210968
3.08779880963266 10.1292552001709
3.63403978571296 7.5228145875905
-3.6769538950175 13.7983204081406
-0.0510704908519983 9.49497385132401
-2.191490361467 5.27111057487857
2.87040271423757 12.0230039889046
0.247485870495439 11.2420722839719
-3.96289479359984 13.6360747439966
-1.77951935864985 4.67281781672117
-1.39837485551834 0.406270748240392
0.70965021289885 15.7863320672374
-2.00252239406109 2.56389941514858
-3.65506175346673 14.5342483311528
-3.11456969939172 9.8337979847262
1.63003049604595 18.5042127218034
3.51216991059482 7.31308907049038
-1.51064785569906 5.10706613389773
-3.37205655872822 11.2193265778737
-1.42604726925492 2.97414609185635
0.999244295060635 16.2333324887807
-0.478065203875303 7.07525458946104
2.41076240502298 13.3421245312886
-1.76572955958545 7.2351591903405
0.565705547109246 14.2079433403983
-3.66297590360045 13.1924226020531
-2.47426035627723 4.98800715550818
1.8166917655617 13.7906562156182
2.61352040246129 12.2640493243142
0.0857686027884483 10.5805702458573
0.541809326037765 12.1526699522824
-3.99075344204903 12.2777728098437
-2.84977517463267 7.53527626031393
2.92773666419089 11.8679896340093
-3.33951151557267 10.9713627843034
-2.04343454353511 4.25187084164981
3.85234525986016 6.91278733668521
0.620650235563517 14.4389949179755
-2.01018908433616 3.71864731253112
0.919631630182266 14.1845486763608
-3.74594143405557 13.0977227024402
-2.82861164584756 8.49874817318624
1.6245837919414 17.8613629791819
-3.47551433183253 12.6685511910094
0.974456498399377 16.4147656147857
3.49861892312765 8.14273529982414
-3.29684308171272 10.5300106812727
3.78242807462811 5.18015845905725
-3.79191431589425 14.0236991081198
1.80182361602783 16.73733025396
-0.370348867028952 6.71927713735961
0.529459239915013 12.6328966897659
2.98184837028384 11.477407570043
0.436505436897278 12.6100519124827
1.90121765807271 15.2721232162184
0.985033296048641 15.4901408735101
-1.51177275367081 2.23350858985326
-0.862428123131394 4.99875760560299
-2.38330035656691 6.42474790338641
2.82224311679602 12.0208120094399
0.854641206562519 11.445410611719
2.04878411069512 15.3124185307715
0.500134469941258 13.7941161098754
-1.79280789755285 3.50201565543067
1.88446722924709 17.9679359366953
0.394238350912929 13.0620721855848
-1.23098364844918 2.18282656187912
0.119725078344345 10.9927898503466
2.52614358067513 12.0338236219525
0.210180554538965 11.4621911126073
-2.37567960098386 2.88772215335302
2.7848614435643 12.1089082682592
-1.0360462795943 3.1980488743835
-1.57339863292873 2.7132372110784
2.16477637551725 16.7242523918968
1.86758843995631 16.1736832864082
2.71124798618257 12.3793682034186
0.552390739321709 13.7485864293943
-3.78975329361856 14.4769720826006
-0.110982174053788 9.26577136548179
0.34144826233387 12.3650206312734
2.69328093528748 13.3907095824661
1.82931630499661 15.2666041557984
0.440910454839468 13.9600857342404
-3.4126848205924 13.0531433648125
-2.90798160620034 7.69563371725305
1.47686957009137 16.0643152030464
-3.2030245102942 10.2059267173348
-2.36971275880933 5.04201039709439
-1.0721588935703 2.30618152823566
2.76956606097519 13.1102189561313
-2.10501923598349 6.09214700320027
1.6390228047967 14.7625968464873
-3.13912935368717 9.98209801249391
2.23255094885826 16.5102568075316
-1.95915453322232 1.90542358817327
0.384346608072519 13.2368925080332
-3.72878783382475 12.8056259543979
2.44887580908835 12.7938728792906
-1.29797754250467 7.13506784279015
3.33028686419129 8.49753793531678
-1.1431486569345 2.12332298283259
3.80292010493577 5.28830961759148
-0.92497181892395 6.10141500213846
-0.0906117185950279 9.08286717241028
-0.0737901497632265 9.5385143646955
-3.90196300670505 17.2765192404974
1.13178560510278 17.3344361172357
0.100599773228168 10.9420974426104
-1.43718305416405 2.40707972131105
0.651465261355042 14.1660615404448
0.938755266368389 14.0138685810017
-0.493803698569536 7.21159732566801
-2.63704815506935 6.66168345205073
1.720643972978 17.4793830357826
1.98229238949716 16.3547717906491
2.75131766498089 12.5276828789876
0.278072375804186 12.0222525744676
-1.58211790770292 4.04912549173937
-0.347854543477297 7.97921101879005
-0.925259724259377 6.73412767553994
-2.00762516260147 2.12370565466849
1.23701395839453 16.7023538386941
3.64258961379528 6.71822796895401
-1.67133634164929 4.50970335186472
1.20151269249618 16.0659621365376
0.29087944701314 11.384196445364
0.779614932835102 13.4457154567589
-3.80081384442747 11.936788547406
-3.96126608364284 16.5515534042796
-2.94897396489978 8.61176478482997
-3.80146316997707 12.9219015429555
-3.26296438463032 11.1293262315487
-0.195534206926823 8.39726129872176
-2.4267459101975 4.43822253296518
2.51739158853889 13.8272414112761
-2.04752617515624 4.5319419229428
-0.0895388964563608 9.39160052790196
1.19105983711779 17.2530592984767
-2.73026823997498 6.56158510664983
2.69582328759134 14.3886715479141
-0.507227761670947 7.09427649511044
-2.13203579932451 5.79337376089099
-1.60915206372738 2.80357946779732
-2.7246293053031 4.71728026117074
0.684536833316088 13.8841599893723
-2.80977618321776 6.97323693934461
-2.56752352230251 6.462656966249
-1.28622796013951 4.20011481103428
-2.52878448925912 6.79104850183711
-0.755667822435498 5.48930841184275
0.908476946875453 18.1092939790909
1.48537067510188 17.5759661730269
2.58820480108261 14.1912606817803
-1.00814308971167 2.66022341929234
3.62272803671658 4.84295254633013
-3.84934272803366 15.5593807949617
0.898999778553843 13.2449196645779
-0.291409889236093 8.58274102073986
-1.1621630359441 6.49352061226173
3.0593842305243 10.106989280809
-3.39357713237405 12.3889115168037
3.06632953323424 10.4520963420752
-2.494225313887 5.30197600970232
-2.27946602553129 2.89116609780772
2.95625833235681 11.1012898953138
-3.51329554989934 12.4443767537277
-2.12080319412053 3.43515202235061
3.94412410259247 4.64131033565121
1.42558182217181 15.3939932307104
-0.516105595976114 5.82421257827449
-0.981520464643836 3.27337566854293
-0.310527805238962 8.03734916537704
2.41481497325003 13.0267962763068
1.3037358019501 17.9736203031912
-0.271970687434077 7.35263873277698
-3.57392450794578 14.0897686587853
-2.10241665318608 2.46169336370161
-2.13408209942281 4.8984501253867
-2.15477119386196 5.04663772046333
-3.50618980824947 12.0769057226383
-0.0230511259287596 9.85763492584381
-2.04699929058552 2.51824060638812
2.06548431143165 16.6121364128785
0.378421420231462 11.2144984324243
3.5845351703465 8.59469616161662
-3.31062246114016 11.1698998594915
3.58306067995727 6.88100174667459
1.77919094450772 12.3334490900212
3.37603683769703 8.7532084429146
0.910727549344301 15.5731942940334
-2.71226798929274 5.86924524528334
-2.53647446259856 8.30806313730188
1.84146849624813 14.325669135927
0.716205203905702 13.1771876842436
-1.50014109909534 2.66754838059045
2.1823551915586 16.2730298672813
-1.30961438268423 3.85702826120721
2.84541352838278 11.1019010866618
0.64422794803977 13.4466731933103
-0.674218788743019 6.32979788373207
3.46058228239417 7.93181070676708
-0.298409268260002 6.98774198348885
-3.20522936061025 10.3590795820567
-0.276405094191432 8.048082279743
3.87267086096108 6.2682415320385
3.40218292735517 8.8355351544497
-0.516809891909361 5.91278037421206
2.9577657263726 10.8954575852584
-1.59716662578285 -2.46608271174405
2.38378104940057 14.9385782092357
2.40408569574356 14.7881478999774
-0.904594430699944 4.60141027428737
-0.947282439097762 1.32371784464676
1.16412491351366 17.6486556288701
2.89333963394165 11.5966341015806
1.25306136719882 14.4339849282699
0.130608588457108 10.6411002394663
-2.80974733270705 8.23096295693848
0.902127223089337 17.3991444265428
-3.66426544822752 13.3057066415978
-0.0131280589848757 9.92798675204281
1.91606577299535 18.0775211034922
2.03119823522866 18.6813415958554
-3.49525007046759 11.9432424655511
-0.460144532844424 7.28662588332521
0.00537359341979027 10.0413257887215
-1.83805519714952 3.25785596197178
0.79041719250381 15.5520940525334
1.8867010101676 19.9123551655769
1.70862249471247 16.8139911805195
-3.06805650517344 9.52695709247359
0.60096494667232 14.5070144679396
2.38505589775741 14.7371083772827
-2.14540962688625 3.070287041242
1.79884660430253 16.3824186135739
2.70418558269739 13.3408899697024
-3.04929143376648 9.64306912802202
3.6716031730175 6.44714530004646
1.98211667500436 15.4698353784095
2.48711583018303 12.8117378826481
-2.48065821267664 6.21014552300536
-3.79224978014827 14.6906074923895
2.91025833785534 11.6472796330878
3.3534389231354 8.23651215796038
-2.89897609688342 7.86620679359526
-0.178811024874449 8.46028153275293
-0.296307997778058 8.14555822769655
1.60142888873816 14.3416498052456
-3.47540079057217 12.1098035368303
1.86431994661689 18.9398717405307
-0.832547277212143 5.00216302218076
-0.308097241446376 8.87028219690143
1.80239490605891 17.7696322568937
-0.239978823810816 8.20225881302701
3.99619182012975 5.32420173971318
2.76748633384705 12.6847923813784
2.62565843015909 14.8046022374516
2.09315475448966 18.3183977469618
-3.10314806550741 9.76602981971632
2.71181615442038 12.9255608675205
2.51080419309437 12.4132814518509
3.93129755370319 6.06260279495851
-3.61348380148411 15.0077788827467
1.97430329956114 19.1932355895927
-0.645491827279329 6.06469564138744
0.65715117752552 13.4300429290569
2.64587249793112 12.0295462933096
-3.89175498113036 17.6712063667735
-3.9078258946538 15.0129572587313
3.97156565822661 5.71117335778813
2.12551733665168 17.7831486509017
-1.4826991148293 5.21778951917776
2.49609395489097 15.0853756159876
3.9297537393868 2.99327513287355
-2.39392325654626 5.52628124147518
1.16829776205122 19.1111999721849
-0.499594168737531 6.03181930633991
3.50422609224916 7.99843376920857
3.90402644313872 4.3718788275529
-0.349443512037396 8.08579129514459
-2.15508045442402 5.0520496330042
1.56391414813697 18.5485667604445
0.453058756887913 12.6476483586228
0.677680715918541 14.3582841140277
-0.530950024724007 5.42357518543834
-0.590599577873945 7.44466296053596
0.774835163727403 17.1293178894127
-0.383315321058035 5.85464783283684
3.65286926925182 5.97364264283975
2.75544280000031 12.9541912898778
-2.21785117872059 5.20711372233159
-0.638638583943248 5.24195263834135
-0.640136515721679 6.41853831249951
-3.83367320895195 14.8347685834924
-0.956416243687272 5.4022100395361
-0.62121257930994 5.00811251693148
-2.46859149262309 4.77474149681179
1.64263425394893 19.4615314038529
-3.8918361980468 17.4757268855039
1.84962484613061 15.4866990747931
-0.538207216188312 5.42128524718078
1.84992074407637 13.9850233444086
-3.88846758008003 14.1338598423117
-3.63749353215098 14.2305212874041
-0.652684988453984 6.64562762175371
1.15072001703084 17.0225846397878
-2.24164971522987 5.92758117084825
2.66754122264683 12.8573365451949
1.55813850834966 16.9178519197111
3.19299588166177 9.70325844582828
-0.68607771769166 8.03087206561922
-0.711962373927236 5.10911533749483
-1.99988008476794 2.77087048102569
-1.00986368767917 3.84115595259044
-2.14485813863575 4.94288996780442
3.4528253171593 7.30503092785405
-0.189241958782077 8.27779887538684
-3.61867997609079 11.0344064720859
2.18824844807386 17.5413517215452
-1.35106136463583 6.641831168599
0.423011764883995 12.5906784815077
1.41064423136413 14.7204631422654
-1.78132503293455 4.38694285719841
-3.57715457305312 14.0646784550608
-0.593931330367923 5.48438365980284
0.880947856232524 16.1613263509967
3.80836828052998 8.24110339564188
3.75840096175671 5.72383538119956
-3.29212354123592 11.2383357263718
-0.0129597019404173 9.88697001372009
-0.834485057741404 6.25560122755561
-0.877344567328691 3.17466604957336
-1.45200407318771 5.82007865756271
1.46060043387115 20.4139356225039
-1.72308073937893 4.65979374334957
-0.879242286086082 3.42967978056489
3.92134848237038 4.63120867475978
2.33604585193098 13.514309049181
-1.50075878761709 0.734254658839277
2.53694184310734 14.0172716173924
-2.23272182233632 3.1871916779548
0.00859056226909161 10.0638819355527
-2.66422162950039 5.98582549497415
-3.04272644408047 9.30478345332447
3.18087974190712 9.63745548875008
-3.25028097070754 10.6829159086671
2.92046845331788 11.7665828205332
-1.7872682902962 2.42389861860935
-3.78173045814037 15.1892267392229
2.29907970689237 14.2972359918528
-1.13071760162711 3.34545166345903
-3.79917627386749 13.5692420783859
1.96874878369272 18.1282621092895
-3.7629953827709 13.333906312713
-0.529081352055073 4.71815432233289
-1.94698533602059 2.01929561584692
-0.0158782321959734 9.88929234361095
1.22684184461832 18.8610952482425
-3.33074491471052 11.2843737578792
-2.55622030608356 5.51001574477797
-3.16429998725653 10.1829233877678
2.49914387054741 14.7010382105301
1.02001953311265 14.9478003373681
1.04457988776267 13.8897511125496
-0.872881198301911 7.21354444333203
-0.54197140969336 6.85995774116195
-1.21092798188329 2.17028635750417
2.34846206940711 14.647218780065
3.09548889659345 10.2116932879996
1.20901669375598 20.5806497742483
0.742906114086509 15.684740007815
-1.37742324918509 -0.690203861277567
-3.3944850564003 12.3584543437489
0.731097936630249 13.8573914579543
-2.57330589182675 6.67606065872837
1.9308009929955 13.8546134925678
-1.64899033494294 1.54496742491235
1.11348648555577 19.1943403778985
-3.00142082199454 9.27921505083098
-1.95787372998893 5.74439538338182
2.56459749862552 14.7815721220646
2.43024314381182 12.5899094815957
-3.63332295417786 15.1196482222079
3.00425377488136 11.1150121739319
-2.97592728026211 9.41124157410799
0.870651228353381 15.8960884610087
-0.243465013802052 8.26182002347118
0.458328684791923 10.9128506611749
1.84314227662981 16.6613670477958
-0.241130489856005 8.60887246865285
3.90888047218323 6.37259851241581
3.87734707631171 4.98154569608981
-0.853722551837564 3.4411893660217
0.870777100324631 17.9955442526242
-1.23613015934825 8.36127222494242
-0.50309950299561 5.90794245140121
-2.16694429330528 5.78361811953644
-3.95142201520503 16.7439446585322
-3.80898489430547 14.7607141696639
-3.52993257343769 13.7448404824396
2.1166051607579 13.4482988771111
-0.24764795601368 8.04163718027802
2.80665504187346 12.4950155427274
0.653755124658346 15.5317606421173
-2.50489390082657 6.11306989792719
0.87248782813549 17.1139909615318
3.14673386514187 9.96858693350766
2.35456932708621 14.3497659909986
0.0327426716685295 10.2308194258771
-0.615773810073733 7.19204689167321
1.23505030199885 15.7469957154571
3.10190811567008 10.3657957128442
3.13613176904619 10.0562668038265
-2.57287569716573 5.02997327956048
-1.93998060189188 4.26412313212367
-3.09249196201563 9.62517064739024
2.37727166898549 14.9806479985439
-3.12369208969176 9.91977494075307
2.63257355801761 13.6621273518283
2.16837037540972 14.4240293598203
3.5495152361691 8.06458351426889
-0.264339251443744 7.79199146690985
3.51884518004954 7.94298518989388
2.28146353922784 15.0871307536042
2.99686300009489 10.728706312229
-0.844298772513866 4.68382395588281
-3.20240671373904 10.4852823537335
-1.78430863656104 2.17668341960846
1.77777640894055 14.7459765890659
-1.14955856464803 1.3157780100608
-0.938304932788014 1.94576532722557
-3.74425079301 14.3905971977848
0.171562295407057 11.2488238361531
-3.03137671761215 9.21303515092322
3.08147341199219 10.4515295147388
-3.40282960794866 12.0023723047203
2.27382357418537 15.5489816807172
2.8330584205687 12.5227199107391
-3.70257463492453 13.3668557426799
-1.79885192401707 0.981037675073692
1.13655959255993 16.2819689361755
2.28062687627971 12.646015607498
-0.799498304724693 5.12395503611514
3.48241863772273 7.36129305920826
-0.87586423382163 2.73375195826183
-0.608325542882085 5.93072082964675
-1.70862639136612 6.90972572233231
0.893987268209457 15.4645598384651
0.470501909032464 12.0860496113527
-3.68026291951537 12.5894903746529
1.96225557476282 14.5743895326011
-2.34810063429177 6.14974129321595
1.25196772068739 18.806865692438
0.179317370057106 10.9518859666958
1.06749267876148 15.3627248145281
0.940505070611835 15.9525624021167
-1.7208356205374 1.31789077731128
-2.20954222045839 5.4506118176434
0.312154842540622 11.6422870751143
3.97097581811249 5.60236908600019
-1.36866770498455 5.43823818681621
-1.41331129334867 1.26933053396083
-3.71741185709834 11.4354057898492
0.204894820228219 11.2095163965095
0.774455320090055 12.8796320879429
1.93669327348471 12.8821186783223
3.62269703671336 6.73416702108214
-0.0830300971865654 9.16431058636266
-3.33370123617351 11.960704632641
-1.92057600803673 4.48126057530557
2.99877300485969 10.7979404741725
2.81647309102118 11.8921118715003
2.74323731660843 13.2662286215677
3.57522939704359 9.2114994568332
1.22145307809114 17.0426615582557
-0.0947554782032967 9.41444316361639
-2.49794639460742 6.69208616250605
1.70426448620856 12.9611878146196
-3.31944023445249 11.1655544871323
-0.310404755175114 8.86928072194767
3.48725845292211 7.63861113668047
2.76234934292734 11.9289067718071
1.72949373535812 17.0035131446816
-3.00954921357334 8.95698786863424
0.758619690313935 14.1223777982214
3.91882241144776 6.52487980007145
0.923267902806401 14.6072166857032
-1.81537866406143 4.50339197615718
-3.49034525454044 11.3714987183857
-3.42157379537821 11.5029344631201
2.98808971233666 11.011162103097
-1.09740002639592 4.16291925946168
3.56497719325125 6.85327706068617
0.466551519930363 14.3108580677064
0.101289207115769 10.775291725102
3.5821733083576 5.75600458713449
-3.12158723548055 9.88589374445267
2.55126040428877 15.4001237186657
-0.981263145804405 3.19511450639479
0.453128382563591 12.021048956905
-1.48903050646186 2.22173199055147
-3.34125695750117 10.8974134296648
2.23950033821166 16.9788238370067
-2.45412217266858 6.24293895838746
1.24468374066055 16.1837322267873
-0.518823573365808 7.20289630869654
-2.42281338758767 6.51299660654474
3.9572833776474 2.42361235514177
-0.426057068631053 6.28722187724465
-3.74858668632805 14.7630917671918
3.49613246507943 7.51877252156718
2.96787163428962 11.4644883083645
0.809970267117023 16.0283797361158
-1.60787634924054 -0.200025027013076
2.47477020137012 15.3809315664201
3.61713908053935 6.98402649349534
2.81643177010119 12.0989287679861
-2.98152211308479 9.03349523524621
3.75105879828334 6.40942095160487
0.456808069720864 12.8788041836345
-3.95708442106843 16.8771075497616
-2.91388864256442 9.47102453272201
-3.9532231874764 14.0596206186058
2.53499249741435 13.8390377443529
2.25730870291591 13.4291277722155
3.44853028655052 6.90662153269879
-1.05048094131052 4.33233930748162
3.79563899338245 7.10025326504374
2.58994945511222 12.734044643302
2.29959090612829 16.5234187416026
0.982606677338481 18.9334573311408
3.73883943073452 6.2031932374395
-0.000652074813842773 9.99529589505718
3.1495647970587 9.95931914180141
-0.791654024273157 3.14575584475411
-0.419667122885585 6.55890211078089
3.48623265698552 9.20890813408729
1.46665757894516 15.6786032706313
-3.85469495877624 14.2729715932609
-2.67578625865281 7.85144216762681
-0.0333240088075399 9.78498158912226
-0.587718175724149 7.37565892533709
3.9364249650389 4.49086749569716
3.11160099133849 10.2300402340706
-1.23395702987909 1.86255137490752
1.64675300009549 17.8103274678768
3.26979749649763 8.69739504809562
1.41034309752285 16.147728967481
1.11280217021704 12.4158153461583
-2.80316378362477 7.65892356385514
0.809003120288253 16.0056568297436
-1.81799011304975 3.99085826176191
-0.337173031643033 6.75737795623495
-2.22197525389493 2.69091974123865
-1.96062786504626 2.53085466308525
1.22950181737542 16.7277558176904
-0.224054710939527 8.68977651351573
-2.71229571476579 7.23367737017448
-1.82335732318461 2.31348352398067
1.703648744151 18.8568539276511
0.906829217448831 15.0464636400617
-2.94302427023649 8.90645694814508
-3.43994197435677 13.5129732429899
3.73012010380626 5.53830191393421
-1.05383777618408 5.48576744668883
1.41963267698884 18.7609009052454
2.76761384308338 12.602325679244
-2.06679691746831 2.38923865752029
-3.71879207156599 13.8762834992797
0.761921893805265 14.7515239142075
2.68952902406454 13.1369220139718
-1.10200631804764 3.01869423655811
-1.34249173291028 4.37014928634639
1.15789064578712 15.2111397161985
3.66892109438777 6.66338608817634
0.769629027694464 15.1094887261631
0.0822401437908411 10.522888949028
-2.75788691267371 7.1421526221638
2.76680804416537 11.7558754982273
-2.2849565949291 6.87308433388035
1.35898595862091 20.5430191279243
0.94205160997808 16.3049441977287
-3.60000178404152 12.7462669004845
3.59519020467997 7.17794142580108
0.660416252911091 15.2573745201984
2.88763469643891 11.652977767374
0.147737994790077 11.0869671131479
-1.87098013237119 3.81880024993746
0.779021307826042 14.2135452336903
2.36460867337883 15.7523538720435
1.51428830064833 17.2713643465953
-0.154946843162179 8.51789574774628
-0.272564889863133 8.72150168680942
0.947298681363463 15.4631923315071
-0.405835885554552 7.40150398373526
0.82166026160121 13.5517474324255
-3.96312820725143 16.5865973419706
3.95995610021055 5.0466112074869
-0.748300412669778 7.12269181129922
-3.05638690292835 9.50506669725374
2.95631276257336 10.8822987638662
0.321543652564287 12.8689896750218
3.05278134346008 11.0719460725245
-3.69968128763139 12.9934069658576
3.05147169716656 10.6133918881009
1.77879735827446 17.3965307196624
2.15848237276077 20.334513025405
2.90874967165291 10.5404025228179
0.00593682564795017 10.0354550400735
3.40691219456494 8.79526451898664
-2.33540263772011 5.27694851397321
-3.78315524943173 13.8589137379867
-1.47365542314947 4.48573757055846
1.2808979973197 20.2231542007472
-1.48246959410608 2.51516143955046
3.55569110251963 5.25725807650649
2.23176463879645 16.8261101294615
-1.28455002978444 5.71248095518384
-0.146829882636666 9.19635578400386
-0.672041609883308 5.30192613044455
2.21067119576037 14.6880464139154
-0.11658395268023 9.10333778369663
-3.87760716676712 15.6829856191954
1.13961036130786 17.1244495257189
-2.12136012129486 4.26383422135445
1.97620706446469 15.2498354138281
-1.63514100387692 5.58779095820281
3.24974553287029 9.1708110342574
2.82659214362502 12.7402291548018
-0.304289784282446 7.95043076891871
-3.42921401374042 12.4132653148261
0.622429795563221 16.6784256357335
0.636634672060609 16.4607347078449
3.9486142154783 5.65925914322457
-1.31780468486249 2.16420664190054
1.3344141934067 15.439974591011
3.50844801589847 6.99438021539889
0.598854679614305 13.8800795728682
1.5336913112551 17.5499748375624
-3.28193130344152 10.7388338481652
2.93167395703495 11.9610168939289
0.00911517441272736 10.0622707284193
-2.2139497268945 5.11219791192947
-0.700646067038178 5.58581554501058
3.09045023657382 10.3656518694799
-0.0352525021880865 9.63790039046337
1.38202982209623 14.6936679495092
-1.73996449634433 -1.74785507852218
2.5364664234221 13.1022391864369
-2.0312043633312 3.41598510247427
-1.04283044859767 7.5089481253797
-2.11580483987927 5.13342820180887
3.48605540767312 7.14193610730416
-0.679385373368859 4.96690407468195
-2.90040475688875 8.13187031685545
3.31491778418422 8.9537851463122
-1.21886899136007 6.89018952287477
2.82344700582325 11.5184690878162
-2.85891856998205 8.17573759271453
-1.12453703209758 2.56400701151593
-2.03595945984125 2.24683007198655
-3.63275242783129 13.0158285311504
2.27638321742415 15.0978846658239
-2.40662612393498 5.52446790993351
-0.865198045969009 4.58336725282407
-1.41150204278529 0.053256067281092
0.816847240552306 14.0434049907783
0.330173436552286 12.1366786571564
3.92658986151218 4.94094641701716
-1.96967160701752 6.01593096797043
1.88215914554894 14.9099319485549
3.82086528837681 5.35078901340899
0.464369934052229 13.5175507928711
-0.858334723860025 2.97717684405318
2.59751407429576 13.1412828786313
-3.10092431306839 9.59717722571468
0.286223232746124 11.4881356435571
-0.449347320944071 8.34613549849703
-1.80834229849279 6.97930381583411
-2.74113971367478 6.41035563192422
2.97470458969474 11.2640885370885
0.496358850970864 13.2093678707115
0.405518066138029 12.5298060971746
0.738922284916043 16.8511012748993
1.82250290177763 19.106013512941
1.11140227690339 14.4749027511097
0.915601318702102 13.3445481044302
-3.58066519536078 13.8984200492791
0.521262023597956 14.0441659233209
0.698731042444706 13.8453527362848
1.02853660099208 16.6749704515238
0.975125160068274 12.444856232394
-3.34183966368437 11.1277714196046
-3.37885910272598 11.8498196561355
1.49675751850009 16.8353988773046
2.64242873899639 12.1235836700337
-2.83272099867463 7.25486375051309
2.26824057847261 17.1483407615474
-0.108399366959929 9.44609014620046
3.91412084363401 5.37325594977006
-0.0071603637188673 9.93941504858838
0.498084280639887 14.1694819921342
-0.973943835124373 5.08490236279963
0.149097578600049 10.7788137072357
-3.40572966262698 12.0077161563894
0.307778753340244 10.9597108585242
3.6884880065918 7.34788727396831
0.222481116652489 11.8859362582348
-0.502724384889007 8.2691275899118
-3.74186402745545 12.5975076190816
-3.69812655448914 13.4433367412989
-3.62121364846826 12.9513213822628
-2.71232771500945 8.54665797213075
-0.247220853343606 8.03772774178821
2.44739179871976 13.1714029399564
-1.75521987117827 3.42946231693597
2.03827188163996 15.8979976770954
0.174606518819928 11.4580821685363
-1.68842245452106 3.17942092031349
-3.86098238825798 14.4354295438892
1.34679623879492 20.0519168806376
-3.46419228240848 12.4550380978744
2.69109141454101 13.5909177400283
-2.91725475341082 8.23148093006449
1.24702486768365 17.7201636722229
2.70358183048666 14.1020480121778
-1.93881603144109 3.57526976115339
-2.91203771904111 8.29667546861356
2.1079073138535 19.3989147739939
-2.30403013341129 5.58655387974964
-1.85624320618808 0.805709645736916
0.254649557173252 11.457490354332
-0.207065060734749 7.85770993178428
-1.01245068013668 5.19320335993523
2.20279942825437 14.3337747436709
0.465631760656834 14.0735751778946
-2.75810703076422 6.65884543950099
3.91534758731723 4.33711798775509
-2.04442855715752 3.28434757322705
-2.95697190240026 8.6261855809519
-2.29855091683567 1.70485455518449
-0.959966013208032 6.61277998192246
-1.12303064949811 5.46828311927747
-1.57870360836387 5.55841910457859
-3.64480229094625 14.3023075468494
3.47826682217419 7.84984686031879
0.549736239016056 13.5213873900469
-2.23357803933322 1.67051110316463
3.02368940226734 10.6871898460069
-0.261689549311996 7.14236305823083
0.338798517361283 11.3896120358958
2.27518539130688 17.3424519733715
1.18296217918396 17.0783580724922
-2.84085482358932 8.15665136512546
-1.42690098285675 3.41444682329366
3.60844466090202 5.64417376883338
-2.49441207200289 3.72483967391576
2.00323398783803 13.3077088457815
-0.326732197776437 5.55735180057505
-2.8690796084702 6.72821196558917
-2.35845539160073 5.8026917670776
1.40234799683094 16.7739813687605
-2.89575831592083 8.61940964671365
-0.675650393590331 5.73849202332918
-0.390023745596409 6.77592288459349
0.98357255756855 15.9994698089486
-1.99060562066734 3.25716440860017
-0.286772290244699 7.18341079178106
-2.6759261675179 8.8360261405728
2.86245162785053 11.6578955436935
-2.74758482165635 7.20187303995945
-3.29334693029523 10.821440827537
3.14734217524529 9.94755354061788
-1.59503593295813 3.89280589051619
2.01669336855412 15.5411357346302
-0.787146816030145 3.35715028456766
-0.411535151302814 6.5324193090091
