5.091574676334860161e-01 1.341209230743909941e+01
2.649775831028819972e+00 1.330559706961340005e+01
1.490599574521179971e+00 1.697750174527810074e+01
4.049337748438119888e-01 1.275770524264889971e+01
3.041972329840060052e+00 1.069618941006810076e+01
6.794924587011339501e-01 1.439878804945869994e+01
3.698871491476889872e+00 6.297848990688420301e+00
3.862445913255210250e-01 1.263698631607310041e+01
2.887914860621089819e+00 1.175676016111430044e+01
2.502821503207090181e+00 1.417346534949069969e+01
-2.991337716579439920e+00 8.952168586299620756e+00
-4.237040411680940144e-01 7.122021630065559883e+00
1.905808132141829925e-01 1.132600456887760032e+01
-2.098004760220649967e+00 3.950495442392440104e+00
3.498512713238600025e+00 7.554269575803919778e+00
-2.846781479194759878e+00 7.966085766612749808e+00
-6.902053896337749794e-01 5.543130976880929595e+00
1.962734738364819931e+00 1.646919252736309858e+01
2.049626810476179894e+00 1.621274062035099917e+01
-3.056689269840719980e+00 9.406390095199439472e+00
1.520056812092660081e+00 1.699099118878019965e+01
1.245646392926569979e+00 1.663321988393310136e+01
2.086589002981780183e+00 1.608931419792499895e+01
1.016885604709389934e+00 1.595331746548579943e+01
-3.191532047465440058e+00 1.034943047157520013e+01
3.139352355152369878e+00 1.001568207594410076e+01
-1.859828542917969951e+00 3.290358833280210060e+00
3.366429377347229801e-01 1.231224232957590026e+01
-3.156658031046390089e+00 1.010545365303200072e+01
2.386854868382219941e-01 1.165497909411720023e+01
2.576240569353100085e+00 1.374999204406240061e+01
-7.566680386662479885e-01 5.194482501187080103e+00
3.154677003622059939e+00 9.908412163135940531e+00
1.666322577744719924e+00 1.696808585365759825e+01
1.631936490535740081e+00 1.698692065642960003e+01
-3.571704523637889928e+00 1.291880740103809977e+01
3.158969618380069733e-02 1.022109109754259926e+01
2.975990589708089828e+00 1.115392331634610024e+01
2.390652889385819879e+00 1.477628251752829946e+01
1.041054822504519972e+00 1.604056403920679941e+01
3.752310909330839994e+00 5.985807795770409889e+00
-2.753006795421240049e+00 7.347839420277599842e+00
2.499116076156500110e+00 1.419426042109249941e+01
-9.285066276788710438e-01 4.394916189636980164e+00
1.344444699585439995e+00 1.682144162075219995e+01
-3.169546494260429892e+00 1.019565140147600069e+01
7.701083570718769700e-01 1.487349117666940046e+01
2.035801269114020151e+00 1.625673544543050042e+01
-1.735981231555340010e+00 3.095284227878719818e+00
1.827155426144599915e+00 1.677123702859299925e+01
1.145772475749250008e+00 1.637720228889180163e+01
2.038923628628249940e+00 1.624690390556470021e+01
-2.150705743581060148e+00 4.144413982230020110e+00
3.714100699871780153e-01 1.254050803186689933e+01
-9.614676982164379604e-01 4.259772920463870349e+00
-1.002288347110150024e+00 4.101063741715369915e+00
-5.116186253726480171e-01 6.572875227805839771e+00
3.133709857240320140e+00 1.005517900298560008e+01
-1.737180802971119986e+00 3.096669953734680014e+00
-1.187058623880149932e+00 3.509097670385199930e+00
1.896621903404589915e+00 1.663170752742090031e+01
3.305505784228440103e+00 8.857739115905170380e+00
-2.457472424954179946e+00 5.576059814587599917e+00
-2.811250299215319881e+00 7.729431762066820255e+00
-3.817162532359359872e+00 1.437739486484250051e+01
3.320510093122719830e+00 8.754249210916009716e+00
8.629436884075399883e-01 1.531831894487939927e+01
3.043524550274010032e+00 1.068537690406169993e+01
-2.090191785246129808e+00 3.923164159635959880e+00
-3.226930055767299965e+00 1.059663703406629942e+01
3.135168980807069961e+00 1.004496540023879980e+01
2.290252413600680104e+00 1.526514986157070020e+01
-3.803328461945060246e-01 7.401393140545150295e+00
-1.346586458384990137e-01 9.060235615843760471e+00
-9.186111632734540455e-01 4.436683725969009728e+00
1.766722800210120070e+00 1.686607410292500120e+01
-1.171151392161849936e+00 3.551605565651990037e+00
-6.588257625699039943e-01 5.714678462678629778e+00
1.383992740884419925e+00 1.687822022108790065e+01
-8.328584935516120114e-01 4.820997628240349719e+00
-1.419367082417009873e-01 9.009775721428400885e+00
-3.248667143285270065e+00 1.074809004482560049e+01
-3.968829255551100221e+00 1.515244523902899942e+01
-2.028408046811819965e+00 3.720228506146419978e+00
7.788278609514239781e-01 1.491711952726340051e+01
2.073334416374560174e+00 1.613454038109910016e+01
2.574443681165579978e+00 1.376060703150730014e+01
-3.222084354609250134e+00 1.056283368892889918e+01
3.523738274350760147e+00 7.389614766562299764e+00
1.131698831915860071e+00 1.633594995074379952e+01
1.273842593654989974e+00 1.669362601957550041e+01
-1.737196683883670101e+00 3.096688365742879867e+00
3.943552128970619908e+00 4.968960752423540406e+00
2.634006587788459974e+00 1.340248355154679949e+01
-4.118692688643930122e-01 7.197739168128539866e+00
-3.204433413222429916e+00 1.043959585958820036e+01
-1.804930843412879904e+00 3.190991508361010087e+00
5.338726621121170357e-01 1.356209631566940033e+01
1.811191106215120028e+00 1.679870841340270005e+01
-8.680099863559009865e-01 4.658690524290739710e+00
-3.916263105347749907e+00 1.489636420811799944e+01
1.542427249252799948e+00 1.699718337294839898e+01
3.601335834711790085e+00 6.893974216086520279e+00
5.550613012164830051e-01 1.368896779400840025e+01
1.153921764343980083e+00 1.640051235866999946e+01
-2.879171600565309852e+00 8.184063657166090522e+00
2.779625320807099786e+00 1.247880339608470024e+01
1.446300409734250003e+00 1.694582271301949916e+01
2.551643066108229885e+00 1.389423392675469948e+01
-1.833775844424960111e+00 3.240662004390070017e+00
1.254065023735170037e+00 1.665180997610049829e+01
3.807117547839879990e+00 5.677695329394920165e+00
3.116314528509970039e+00 1.017692803180199945e+01
2.295418821275229782e+00 1.524124794140939976e+01
1.690858062356709879e-01 1.117796884133099944e+01
2.434050234034660143e+00 1.454977648398899959e+01
3.469572164118289948e+00 7.745083702324439656e+00
-1.004297792911529985e+00 4.093502804266940132e+00
-3.002063291147349933e+00 9.026460535415960607e+00
-1.201585657894610026e+00 3.471712573901029941e+00
-2.961983103305099729e-01 7.956796691020530332e+00
-2.135727204382420030e+00 4.087620746530349791e+00
-3.423543008044359848e+00 1.194760664363260005e+01
-7.204325720667840161e-01 5.382031257005119862e+00
3.842583000659939851e-01 1.262410139021180022e+01
3.857122989371419841e+00 5.407875557888710105e+00
6.838668249547480427e-01 1.442256537213629919e+01
-2.083242967724800110e+00 3.899167484190730004e+00
-3.945331929251549852e+00 1.503969373721890079e+01
1.017169475555419922e+00 1.595436247225769932e+01
4.820261094719169859e-01 1.324502762708210035e+01
2.417905736714600184e+00 1.463506420510769956e+01
3.954158212989570043e+00 4.917623834327820020e+00
1.054801402613519956e+00 1.608861579765139993e+01
-4.148550890386100143e-01 7.178598789631180033e+00
-1.436591558158399895e-01 8.997841311138470743e+00
-2.834329899400469976e+00 7.882844919423240171e+00
-1.347624067217110033e+00 3.173598185997629884e+00
-1.874506505206229967e+00 3.320365614436600055e+00
-2.874830484390260121e+00 8.154733381674649451e+00
-1.429372452199459964e+00 3.069885895850819946e+00
-1.168111179023979984e+00 3.559915796760809936e+00
3.866801446303730128e+00 5.356958033966139787e+00
6.715107653290030010e-01 1.435518613957190048e+01
1.743076372891660064e+00 1.689637523298319977e+01
-3.876178648322820219e+00 1.469195983436689978e+01
3.944358242675659820e+00 4.965038952984969889e+00
-3.924560759216550121e+00 1.493770469327600026e+01
-8.833031076937909454e-01 4.590125254611939987e+00
-5.805737543851140492e-01 6.160473605269429775e+00
-1.464406015351410018e+00 3.039578790794879914e+00
3.933961883187290010e+00 5.015868061777450038e+00
2.672434473410250089e+00 1.316494909598070073e+01
3.796757441014049772e-01 1.259433527452899959e+01
3.746092524379490141e-01 1.256136235284060021e+01
9.378821570426230103e-01 1.564415048309590084e+01
2.900415180251000091e+00 1.167192330165410041e+01
2.852775735780599842e+00 1.199372840789120076e+01
-1.658275201916689923e-01 8.844520109647419304e+00
2.047098077833649832e+00 1.622087639260280056e+01
-3.663523731753230095e+00 1.348988525915070014e+01
3.273172035813329828e+00 9.081599751399910048e+00
-1.618215374648569904e+00 3.007868506777140016e+00
-9.203614108264450422e-02 9.356656167676609570e+00
1.299084052443499893e+00 1.674318936451780004e+01
2.480514824390410045e+00 1.429777580658469915e+01
2.345793342217799893e+00 1.500096185686519945e+01
2.282333370298149866e+00 1.530151358594359934e+01
2.636991029605269876e+00 1.338421127395580079e+01
4.934048708528280258e-01 1.331539168649240068e+01
-1.084711346775290020e+00 3.810819787810950210e+00
2.067676300182939908e+00 1.615351875924219982e+01
1.667388100177049914e-01 1.116177093157279998e+01
-3.995001813396810153e+00 1.527468216079540042e+01
-1.703198954463009951e+00 3.061267013617829935e+00
-1.538239913061260067e+00 3.003709392607509798e+00
-5.345188751816749573e-01 6.434010413068100398e+00
7.507079448550939560e-01 1.477509609175510086e+01
1.176458800211549915e+00 1.646275900901289901e+01
3.661357939243320203e+00 6.523264958169449734e+00
-2.857599820941690183e+00 8.038664617194660522e+00
-2.347748883068560222e+00 5.008625933613170211e+00
3.632729908451440171e+00 6.698596853376160176e+00
-2.886370869353410029e+00 8.232779895742199372e+00
-1.184890892356629921e+00 3.514793939494520014e+00
-3.663135610520840135e+00 1.348752987425820038e+01
6.685029063373799652e-01 1.433868285985229996e+01
-3.684006417170170078e+00 1.361343358514269930e+01
-3.229591114446519917e+00 1.061519452480660064e+01
-1.590859804302449998e+00 3.001408853692619783e+00
-2.367232933640480042e+00 5.105190483097279852e+00
2.391398765146730110e+00 1.477246429257989924e+01
3.104441523551940030e+00 1.025999809212509994e+01
2.203260730952020019e+00 1.564601215710399984e+01
-3.024805920198560205e+00 9.184349948549199283e+00
1.980130577459930041e+00 1.642170195413520162e+01
-1.926041271537539901e+00 3.437070758185460040e+00
3.198599763214589942e+00 9.601166336865739837e+00
-2.031298125162719792e+00 3.729192714000269859e+00
1.839650608599190107e-02 1.012876827910950084e+01
-2.823090821504589787e+00 7.807991341455590373e+00
-1.576899003237490104e+00 3.000130348904619826e+00
-2.897133074700830146e+00 8.305775953077739970e+00
-4.015801269561050102e-01 7.263887257994960045e+00
-1.156436953693630088e+00 3.592379010940410122e+00
-7.144817877560849517e-01 5.413417789154929771e+00
2.023456463590259879e+00 1.629500794977429834e+01
1.940313057973980015e+00 1.652751395933499978e+01
-1.022738058120010063e+00 4.025235172902189795e+00
-2.278623338788750008e+00 4.681564420219290312e+00
2.777930384501809957e+00 1.248989558463819982e+01
1.672303227707740092e+00 1.696396817595820039e+01
9.468098189681769528e-01 1.568088986089409964e+01
1.721068222075700094e+00 1.692111286905560164e+01
-6.476342007517810195e-01 5.776890624020929899e+00
7.709036860615019471e-01 1.487748604108990058e+01
-3.038548098877070114e+00 9.279963942740900862e+00
-3.241274712607260078e+00 1.069661941303029984e+01
-3.339978033676739955e+00 1.137960646253340080e+01
-2.789294628426429945e+00 7.584610784040879849e+00
-4.437808245420459818e-01 6.994500160781630171e+00
-3.824050277471540138e+00 1.441491473115610056e+01
3.144408915191890141e+00 9.980286194844799397e+00
-3.514235427603130013e+00 1.254854667739950003e+01
-3.619069494307040058e-01 7.521591902843200117e+00
-3.424767222255470145e+00 1.195583631166580041e+01
-1.723489295691250089e-01 8.799521354123569949e+00
2.491709262132640212e+00 1.423565500014989915e+01
2.407585695385929814e+00 1.468895109320039971e+01
-2.677383814007039953e-01 8.148142480545509159e+00
1.230133458971979898e+00 1.659773380393080089e+01
-2.730492819100620139e+00 7.202675625353180067e+00
1.500860653817650103e+00 1.698288848183149824e+01
-3.085965838283299956e+00 9.610813078280889599e+00
1.199881270527840105e+00 1.652397239797150164e+01
-1.632836356759070018e+00 3.013467058261420028e+00
5.369557291269300148e-01 1.358065761012579920e+01
2.494619328528639990e+00 1.421941905385410010e+01
-3.386470677331089973e+00 1.169706592484189933e+01
-3.246026262640949733e-01 7.767474675970610143e+00
-3.129407415166499895e+00 9.914705441829999799e+00
9.164972584694619506e-01 1.555432298582639916e+01
-8.130358718335629897e-02 9.431501694598809493e+00
-1.709717210382220021e+00 3.067437979704629836e+00
1.005949096754189975e+00 1.591269270213770071e+01
-2.216949464753270149e+00 4.411158202549490426e+00
-8.273232430219650269e-01 4.847144241465110248e+00
-2.611858030781149864e+00 6.462869521374390303e+00
5.765897650271649688e-01 1.381617755024850069e+01
2.843311335891490210e-01 1.196360852103840067e+01
-6.165337003767489693e-02 9.568699769575470526e+00
2.932481437921520051e+00 1.145313391350710042e+01
-1.087058875709770028e-01 9.240556571678739672e+00
-3.970526179298759839e+00 1.516047849764390065e+01
-7.471370697021479934e-01 5.243211633783210424e+00
-8.457756787538529830e-02 9.408662622370110640e+00
-2.822898067533969879e-01 8.050111126351460200e+00
-1.300040021538729995e+00 3.255017767478289858e+00
-1.776322312653060009e-01 8.763103084075439142e+00
-1.489259423688050088e+00 3.023256044339650117e+00
-3.167370911687609869e+00 1.018042782219509945e+01
3.761873412877320133e-01 1.257163970533970065e+01
1.124054510146379915e+00 1.631301662492600002e+01
2.884297650307420247e-01 1.199113043607460050e+01
1.402899049222469996e+00 1.690156831920640101e+01
-1.639925830066200074e+00 3.016719448822850147e+00
2.250436507165429895e-02 1.015751725903989922e+01
9.017877485603089660e-01 1.549105857711409939e+01
1.341121850535269999e+00 1.681618388858840163e+01
-2.773960975930089834e+00 7.484155422551429737e+00
3.624809710308909860e+00 6.747587941884550133e+00
1.033769052475689953e+00 1.601463292187460041e+01
2.880854768678549949e+00 1.180455496496690060e+01
9.051677212119099702e-02 1.063275252446250008e+01
-2.360490376129749990e+00 5.071561689658800276e+00
1.320921557024119952e+00 1.678260377597289832e+01
1.786861289292570043e-01 1.124415742854280076e+01
-3.633350666612389812e+00 1.330523418937290003e+01
3.227207077667119783e+00 9.401430892183940458e+00
1.965089738368990036e+00 1.646287764459369996e+01
-2.979746798053379830e+00 8.872018508208199705e+00
-4.813464991748330202e-01 6.759188338531039619e+00
1.054310973733660006e+00 1.608692122058650043e+01
2.931866517290469876e+00 1.145734431406459919e+01
-1.056832417845730010e+00 3.904382037767830216e+00
1.693540634587409999e+00 1.694733459414759835e+01
-1.437014060094949919e+00 3.062548558963750001e+00
1.395011104643339994e+00 1.689212665242000000e+01
1.869982065632940005e+00 1.668903762115190048e+01
-2.345453314483169904e-01 8.373194471585300391e+00
2.026462914422149986e+00 1.628577521945100059e+01
-1.215879578143360007e+00 3.436272039443660109e+00
-2.710673898458479947e+00 7.076059796789239797e+00
-1.879738148301840051e+00 3.331409098090639898e+00
1.630503600463270031e+00 1.698752635147939927e+01
-6.337329950183629990e-01 5.854900939349439781e+00
-1.730305785313249967e+00 3.088862782519670169e+00
1.432107325643299900e+00 1.693278660250360090e+01
-3.536331515759230104e+00 1.269197002458959922e+01
-2.256074650213120147e+00 4.580299494310190234e+00
-3.990466972813010216e+00 1.525375899273210045e+01
3.652638113126160047e+00 6.576374207002169570e+00
-1.736057033762339996e+00 3.095371499319429898e+00
-3.038102971389890161e+00 9.276864649687560416e+00
3.434805460274219957e+00 7.976794225754890277e+00
3.214995115995410213e+00 9.486644040032130576e+00
2.276602132245900023e+00 1.532762380752410003e+01
-1.161735219880940084e+00 3.577537309485860018e+00
-1.699379839003090087e+00 3.057788331437150120e+00
-1.337411677464839910e+00 3.189775632038649889e+00
-2.529372073709959867e+00 5.977197019267370237e+00
3.263571206480259779e+00 9.148265927394149344e+00
-3.065379019826650175e+00 9.467020883320859781e+00
-3.304478656500580147e+00 1.113516675993949967e+01
2.517120311036709968e+00 1.409268496545339922e+01
-5.710952691733840458e-01 6.216123168583189695e+00
-1.897629566490649955e+00 3.370553646507150169e+00
3.621156591922039869e+00 6.770253569846220287e+00
3.092528967186809918e+00 1.034330802835379970e+01
-3.648266997188330141e+00 1.339690472981309988e+01
5.810672156512739495e-01 1.384241417397890039e+01
-1.785159420222039994e+00 3.160215451047120094e+00
-3.090485855937000204e-01 7.870932957560340171e+00
-3.426959551870819798e+00 1.197056671401949934e+01
2.655420502647760195e+00 1.327071508060920024e+01
1.064442878589030084e+00 1.612163205312539915e+01
2.377127315849069944e-01 1.164836207138520052e+01
1.586092758923770107e+00 1.699918108304219899e+01
3.654666762799020141e+00 6.563995064603010299e+00
1.046188788488509935e+00 1.605864407316909848e+01
-3.839805595576760044e+00 1.449994889348760019e+01
-2.907678423449400196e+00 8.377491548021630763e+00
-3.498800013214350191e+00 1.244761467825630064e+01
-1.108270235359670064e+00 3.735502695957740205e+00
-7.794132623821500294e-01 5.079964750831059916e+00
-3.470821175724270180e-01 7.618912392557850133e+00
1.136910555884240059e+00 1.635137318891240099e+01
-2.679792862385510066e+00 6.881079338712919657e+00
2.758676994591950038e+00 1.261538590857949949e+01
-1.844732420518989890e+00 3.261005126330680071e+00
9.441429860889910541e-01 1.566996252486780072e+01
-3.926560433581470111e+00 1.494761672077789960e+01
1.464082259684799991e+00 1.696018018775309955e+01
3.912626165896650132e+00 5.121862146460370191e+00
8.698798585683109597e-01 1.534976022787479977e+01
3.513107204809780004e+00 7.458810480632529938e+00
-2.741637706756590021e+00 7.274362083608039597e+00
7.999116741120819718e-01 1.502106185603870081e+01
-1.527133602648970134e-01 8.935156701390930323e+00
1.151383319869639932e+00 1.639329694887319988e+01
-6.043832395225759990e-01 6.022217230704329793e+00
-9.243470747023819767e-01 4.412406520239350094e+00
3.749129343777890089e+00 6.004073260378899768e+00
9.540518671274189622e-01 1.571036006633329940e+01
3.822827238589530108e+00 5.591732330696379982e+00
1.078404078260059906e+00 1.616843136604169828e+01
3.929892446845769882e+00 5.035911053877270227e+00
-3.853087330237030095e+00 1.457076583787950064e+01
-2.034210575744510141e+00 3.738279300971540042e+00
9.021680261939759582e-01 1.549270914020950052e+01
6.642447616904969543e-01 1.431525252971029971e+01
-1.564177675172689908e+00 3.000153322362829833e+00
-2.677615350112319881e+00 6.867440787745089814e+00
7.295500561594959743e-01 1.466573996615210085e+01
3.635790619999169859e+00 6.679719861309020068e+00
1.681459210813049943e+00 1.695718176510809982e+01
3.164873123168949753e-01 1.217861181439529972e+01
2.999059099704029840e+00 1.099436000782429979e+01
1.529662651941180007e+00 1.699407890771000140e+01
-2.880176551640030169e+00 8.190858397203440333e+00
-3.857873504981399915e+00 1.459608828605539976e+01
-2.102162420749659866e+00 3.965190382816920156e+00
2.991599302738900068e+00 1.104602090588769947e+01
-1.379220807924870007e+00 3.128061740148719849e+00
2.162672594189639863e+00 1.580926734537010070e+01
3.014174643903970163e-01 1.207811845347210067e+01
2.859579395502810151e+00 1.194802957878889949e+01
-8.967277612537150056e-01 4.530979357016840403e+00
-6.252403985708949730e-01 5.902954527152780351e+00
-1.975208047777410103e+00 3.564661782413860003e+00
2.305566672235729975e+00 1.519389316065240081e+01
-2.742657398805020019e+00 7.280938014714780415e+00
1.388439903035759926e+00 1.688393364490130111e+01
5.167234782129529469e-01 1.345823833132659963e+01
-6.935567352920769535e-01 5.525066122957619896e+00
1.890672232955689980e+00 1.664492112582030003e+01
-3.251240106299519983e+00 1.076599514245310019e+01
-3.814844062551860038e+00 1.436471857438239930e+01
-2.192908536642789841e+00 4.311454383003449742e+00
-8.227843735367059708e-01 4.868702137681950148e+00
-2.746905189007519787e+00 7.308362093683090421e+00
3.091752486303450009e+00 1.034873674968009993e+01
2.567610591650010043e+00 1.380086184300539998e+01
-1.168763425201180040e+00 3.558127904944099917e+00
-1.506382383406160042e+00 3.014517025868070021e+00
2.033979216590520167e+00 1.626244446209949857e+01
-8.347148802131409973e-01 4.812264191072619823e+00
-2.823613403365019980e+00 7.811465733138040157e+00
5.555461980402469635e-01 1.369185204873100048e+01
-1.073236213997009969e+00 3.848752150254110216e+00
-7.949237525463100085e-02 9.444139222624359675e+00
2.701189890503880031e-01 1.186792279088849966e+01
-2.902051059529190180e+00 8.339198659403280089e+00
1.525642227381470040e+00 1.699286508797180062e+01
-6.506467331200840309e-01 5.760092069733070197e+00
-6.779403742402789756e-01 5.609668721370879574e+00
2.164983691647650144e+00 1.580022600121350074e+01
-3.176602538675069809e+00 1.024501913543729970e+01
-1.809989841654900067e+00 3.199294461945390022e+00
-3.895671762526040194e+00 1.479232403593960044e+01
-1.087265081703659986e+00 3.802488816847020114e+00
3.833629840984940085e+00 5.533250769425920090e+00
-7.418456804007289573e-01 5.270451824851249967e+00
-3.398838587105270204e+00 1.178092654631289982e+01
2.271571829915049801e+00 1.535039655162650085e+01
1.386659851297739943e+00 1.688166308531900128e+01
2.058633273467420199e+00 1.618344147806800137e+01
-3.177082845941189948e+00 1.024837919763830030e+01
3.775005085393789983e+00 5.856709371895419736e+00
-1.835641020908949983e+00 3.244067842948170188e+00
-1.037394404411319943e-01 9.275125718505989880e+00
-1.503097664564849945e+00 3.016034755547599921e+00
-1.257529586553570056e+00 3.340676399829519916e+00
3.081061212345959976e+00 1.042346138046240078e+01
1.871617190539839992e+00 1.668565509827740101e+01
-1.153907474130390076e+00 3.599528145202380180e+00
-1.969433628022670080e+00 3.548864410118009793e+00
2.102004714310170108e+00 1.603536892384880019e+01
-3.721001567319039971e+00 1.383270593648030022e+01
-3.509899085387590212e+00 1.252025167929819993e+01
-2.657676674425599739e-01 8.161449573031930527e+00
3.972937749698759902e+00 4.828130667778159690e+00
-3.996277207508680096e+00 1.528054713926960062e+01
1.425790859386319998e+00 1.692653581100919880e+01
-1.049236392602320045e+00 3.930698833383929891e+00
-2.723003979772329886e-01 8.117365500761820840e+00
1.652015209198000045e+00 1.697692491475880061e+01
3.700922731310130054e+00 6.285670614164169834e+00
1.475891783833499948e+00 1.696849960102910160e+01
2.718142118304970101e+00 1.287636065485440007e+01
-3.548942197114230090e+00 1.277323999335830074e+01
3.675726270303130150e+00 6.436331319322539990e+00
5.252347476780410140e-01 1.350991286553560045e+01
1.945639321580530101e+00 1.651395581998150064e+01
1.922674883157009962e+00 1.657108832000630017e+01
-3.664644012227650016e+00 1.349668093679199998e+01
1.606824699789290101e+00 1.699545733860080077e+01
3.879655839875340018e+00 5.290005397538990017e+00
-2.166041277349000094e+00 4.203921760536630359e+00
2.855083361268039965e+00 1.197823878333269931e+01
-1.791602618992329976e+00 3.169951772981089988e+00
-3.428545203059909952e+00 1.198121490704870062e+01
1.837053315714000101e+00 1.675333765040879896e+01
3.407869637012480024e-01 1.233960231749260039e+01
1.972544033080340098e+00 1.644265299149689952e+01
9.022371917963030175e-01 1.549300926232480080e+01
1.902379224076869990e+00 1.661869762210449863e+01
7.547455523163080215e-01 1.479572337627710077e+01
-1.428137948736549978e+00 3.071109224324890086e+00
-1.309350352734329981e+00 3.237879346804199976e+00
4.875838700681919824e-01 1.327944880013730078e+01
3.816791970282789936e+00 5.624629614308250147e+00
-2.200117366388440132e+00 4.341008703996100060e+00
-8.084814026951789856e-01 4.937325115895499827e+00
-2.959643237292770124e+00 8.733369929256250330e+00
-2.695437366142869884e+00 6.979497426964829998e+00
1.346277197822929983e+00 1.682430895822430017e+01
-1.755478601902719982e+00 3.119037482140420092e+00
-3.170307464897629934e+00 1.020097605768500060e+01
-2.641847599297760141e+00 6.645587490171210199e+00
5.237230453640220329e-01 1.350075331839109971e+01
3.540790895000100136e+00 7.279241759366930076e+00
-1.924586638808249983e+00 3.433536050109259996e+00
-1.390134826302529936e+00 3.113924654275550097e+00
2.830106990411879853e+00 1.214531202325260040e+01
2.493756674230100057e+00 1.422423573789130025e+01
-9.527703989297150455e-01 4.294832872118620415e+00
-1.076365843415260093e+00 3.838326261264689787e+00
-1.054170131683350026e-01 9.263446866611500852e+00
3.242476653307679868e+00 9.295009273518120452e+00
1.676638837903740020e+00 1.696082736017979897e+01
3.029392169788479805e+00 1.078375652309219923e+01
3.131152937188740104e+00 1.007307668738070028e+01
-2.498471045866609952e+00 5.802125508385770125e+00
3.739186964929099855e+00 6.061412613752530376e+00
-2.159224636852739909e+00 4.177301443740759623e+00
-2.109280887991189957e+00 3.990592135326910039e+00
-1.629582596942779960e+00 3.012091906557550214e+00
3.186886649578810182e+00 9.683050426796560473e+00
3.325468307361009845e+00 8.720111202218310709e+00
-1.044089073315259908e+00 3.948731116854010015e+00
-5.726279299706219517e-01 6.207101522522370018e+00
5.829364657402039684e-01 1.385334470093400050e+01
4.114801157265899900e-01 1.279976435071679930e+01
1.807864215224979976e+00 1.680421538332250009e+01
-1.135544292628769991e+00 3.652653374249749785e+00
3.248384892940519908e+00 9.253874422229040775e+00
2.451481310650709844e+00 1.445636135751940010e+01
-2.575889483094219834e+00 6.247932986346110162e+00
-2.903151351958510151e+00 8.346681792414990753e+00
5.754825118929149941e-01 1.380967753338969928e+01
3.887633321806790221e+00 5.248845019288589597e+00
-2.051044218242170203e+00 3.791837029064780040e+00
-1.285499358549710092e+00 3.282953191448549912e+00
1.315591540187600050e-01 1.091825987495900030e+01
-2.889551492407920197e+00 8.254331957553999288e+00
-1.535043565556410083e+00 3.004473433228620038e+00
3.713220560923220059e+00 6.212986910940760055e+00
1.835125215351580019e+00 1.675687637688579912e+01
-3.136904958635569951e+00 9.967186255498249992e+00
-1.576760677620770101e+00 3.000124506813610203e+00
1.504393871873619948e-01 1.104910799964009982e+01
3.589052058756350139e+00 6.971264769164750241e+00
2.175275858491660053e+00 1.575958606194389944e+01
-3.316972341388459977e+00 1.122137409580549949e+01
3.217454226687550101e+00 9.469478187094630073e+00
-2.278668094426389956e+00 4.681768121443280251e+00
3.771504534408450127e+00 5.876485129472680313e+00
3.173909461125730136e+00 9.773821721242059724e+00
9.599464815109970406e-01 1.573412611243339931e+01
-1.939959544688459880e-01 8.650530053484899895e+00
8.109258078038690254e-01 1.507447644835890088e+01
-1.993771728128189924e+00 3.616898454790999917e+00
2.202377837151289874e+00 1.564966331758900075e+01
-3.366275113075969938e-01 7.687859594371509786e+00
3.590602004900569799e+00 6.961486941431550335e+00
-3.839452270418409974e+00 1.449805410238679926e+01
-1.441435063257809901e+00 3.058488545555530180e+00
3.055820474401119924e+00 1.059966934150089912e+01
2.957648562267420012e+00 1.128035978181550014e+01
3.225868482142689952e+00 9.410767274437299434e+00
-3.646823456510900119e+00 1.338806594182790022e+01
-3.839407926425340012e+00 1.449781625739890067e+01
2.383223498240110150e+00 1.481416904190490058e+01
1.350172139704229890e+00 1.683032730181519909e+01
-2.622199231758710170e+00 6.525524475922789946e+00
-2.829743536189199826e+00 7.852266366628110283e+00
-1.413240054622290076e+00 3.086704341081739855e+00
3.888434378430249971e+00 5.244728573380680103e+00
-1.685182839632030083e+00 3.045745049070990085e+00
-2.328989211469890019e+00 4.917441490798929671e+00
-3.582411073148250136e+00 1.298675852153479937e+01
-3.776059424504639939e+00 1.414923699681339997e+01
-2.760706193745139814e+00 7.397795167660549787e+00
1.037963390350340021e+00 1.602960026455440001e+01
2.234320025891070038e-01 1.155104329698960086e+01
-2.634413957595830080e+00 6.600008792176329742e+00
-3.810490854084489953e+00 1.434085397172609966e+01
-2.776902217417959839e+00 7.503379254843959956e+00
-3.271648000925779787e+00 1.090782315911279987e+01
3.959491521120070079e+00 4.892024541846510033e+00
-3.934275841340419966e+00 1.498567483532569966e+01
-3.073762681335209912e+00 9.525554202948359972e+00
-2.075754387304189930e+00 3.873636649940860099e+00
-2.682209853082900275e-01 8.144884829552989203e+00
1.332045737653970052e+00 1.680143943412430119e+01
3.551848791539669731e-02 1.024857714176070012e+01
-6.577831860631699890e-01 5.720451432225820199e+00
2.931742105633019957e+00 1.145819610160019941e+01
2.232527062296870035e+00 1.552250934014899997e+01
3.350858785212039948e+00 8.545805315292389182e+00
1.912253484129909920e+00 1.659587405161320106e+01
2.563796097412709862e+00 1.382325656616090015e+01
3.311963597312570062e+00 8.813164462689650591e+00
-1.774237621575590063e-01 8.764539432626200721e+00
3.995236223563550126e+00 4.724239245758149686e+00
-1.022095518186689977e+00 4.027579888092340354e+00
-3.134571764618160117e+00 9.950854180957389161e+00
3.699370568618180144e+00 6.294884493511819556e+00
-2.121442593634129903e+00 4.034694159613589903e+00
3.402529098093510229e-01 1.233607859362859926e+01
3.226898303255440137e+00 9.403584424979740675e+00
1.202092003077269933e+00 1.652956569600100067e+01
2.255751317366959885e+00 1.542113265790479915e+01
-1.376634245738389994e+00 3.131532199539489802e+00
2.024880796670910144e+00 1.629064094854919986e+01
-2.418042106553909942e+00 5.365651177803799854e+00
8.446947317570450142e-01 1.523437922871159955e+01
2.153551289811729941e+00 1.584464784293490069e+01
3.160362873226400193e+00 9.868616177743970042e+00
-3.744226975366470089e+00 1.396770297877790057e+01
-1.913145143538709902e+00 3.406218640636180073e+00
-1.082631776109340027e+00 3.817633727014059897e+00
2.581739133223889926e+00 1.371743460622830035e+01
6.099613513797520481e-01 1.400985046985359972e+01
2.427348336204889989e+00 1.458532633103370024e+01
1.039784427732229899e+00 1.603606556109739856e+01
-2.244619632139800203e+00 4.529907933344340165e+00
-2.813180865719909995e+00 7.742219269094509748e+00
3.315505495294929883e+00 8.788737630975619552e+00
-9.884440544992689759e-01 4.153801351990500379e+00
-3.849854262545699957e+00 1.455360120089309994e+01
-2.686310200020670003e+00 6.921987906859840223e+00
-2.370049491524699903e+00 5.119304167198659883e+00
-7.639177460223439686e-01 5.157708880495539994e+00
2.834917971864340025e+00 1.211323100399670061e+01
3.120623305439949924e+00 1.014677468002749983e+01
3.710746655240650060e+00 6.227562737889529743e+00
-3.870716152712700087e+00 1.466351363035279931e+01
-2.626412048935890198e+00 6.551155860571210354e+00
-2.384038329124449795e+00 5.189973290065259981e+00
-3.044761760160330066e+00 9.323242475464400769e+00
-3.369856234639880266e-01 7.685493653448229878e+00
-2.510467004030940141e-01 8.261074108037359309e+00
2.485631909221409919e-01 1.172208093538259988e+01
-1.505042025819419926e+00 3.015127246777800085e+00
2.363739341497419932e+00 1.491226183299160013e+01
-3.795786412432789803e+00 1.425963760274689918e+01
2.862621722742920038e+00 1.192756556933260015e+01
-3.480573600158099801e+00 1.232768341240259957e+01
-1.485833756625650093e+00 3.025250039428450055e+00
2.818916801363230196e+00 1.221973811580659941e+01
1.638977965340020049e+00 1.698373572673580156e+01
-3.603692514821890125e+00 1.312080098895850000e+01
3.631609981879590165e+00 6.705511758060190175e+00
1.178776124492290078e+00 1.646897380843899938e+01
2.504905059933660194e+00 1.416174712045570061e+01
-2.225696522742509842e+00 4.448238955009860440e+00
2.968347309157250091e+00 1.120666010187030004e+01
-7.453392539173360198e-01 5.252451929795049601e+00
6.540007982403039932e-01 1.425856567137719999e+01
-8.364091273397209481e-01 4.804309148158120379e+00
2.467090042307969799e+00 1.437156247230930006e+01
-1.872218877077099997e+00 3.315594088031870168e+00
-1.976280571892859994e+00 3.567619585691649942e+00
3.688838349655270132e+00 6.357640036428730212e+00
2.161638075485829980e+00 1.581330448030539948e+01
-1.739773359149690002e+00 3.099698765181699844e+00
-3.266842441633340144e+00 1.087445798025099997e+01
6.146290525794029930e-02 1.042996950228899955e+01
2.082372810691600074e-01 1.144714908288739963e+01
1.813620312139389901e+00 1.679463983698590113e+01
-1.038281612098219897e+00 3.969268498604559881e+00
4.374546352773899804e-01 1.296544615347059981e+01
3.094900572672489858e+00 1.032672581764660080e+01
1.668243745341899897e+00 1.696679029459239985e+01
-7.017350960522890091e-01 5.481193459469290374e+00
3.482398426160219884e+00 7.660273592469240000e+00
1.887194802984599962e+00 1.665253524840840171e+01
-3.681754903867839879e+00 1.359992603850029980e+01
2.558757342398170209e+00 1.385275353924370023e+01
1.298541136085989978e+00 1.674216841063489980e+01
3.596682583913210163e+00 6.923198349465839563e+00
-3.701040280982850206e+00 1.371502681475590002e+01
-3.348267519846559903e+00 1.143644668876470050e+01
1.578990129753949923e+00 1.699976501689040020e+01
-2.975484643131490081e+00 8.842583657430820310e+00
1.857081644237039919e+00 1.671509638436500111e+01
1.325881140306589989e+00 1.679110525475930160e+01
3.461448632180689877e+00 7.798991070078010068e+00
1.278707597404719953e+00 1.670351156175659924e+01
2.411436669528479904e+00 1.466890103554050029e+01
-6.646836027503010280e-01 5.682329135222469851e+00
-2.861645635217429984e+00 8.065866890735730266e+00
2.555737119168040028e+00 1.387038714679649942e+01
-3.635548004880550188e+00 1.331878493843679934e+01
2.652548784390090120e+00 1.328847433290360058e+01
-1.195641815662380036e+00 3.486842876646440104e+00
-6.836293134838340446e-01 5.578723477568219735e+00
-8.379699084907770157e-01 4.796993969061169594e+00
2.532847100868819812e+00 1.400287163081030073e+01
-3.400345990434289867e+00 1.179112912755939924e+01
1.346589148044589956e+00 1.682479478907999848e+01
-1.918940210714940031e+00 3.419947132719070026e+00
-3.061350181698800021e+00 9.438905283914040822e+00
-1.292869729921219957e+00 3.268615418555730123e+00
2.512746863067150116e-01 1.174047172125649929e+01
-2.087200354784730205e+00 3.912797675931929842e+00
1.560165578499439931e+00 1.699960445889249883e+01
-8.382389228790999569e-01 4.795734413537630303e+00
5.548215098679070145e-01 1.368754115077869926e+01
1.257768483832480078e+00 1.665983875366140055e+01
-1.424500994384289898e+00 3.074774629590640185e+00
9.013757221400739983e-01 1.548926931480879965e+01
-1.100786300376060067e+00 3.759053768739479828e+00
9.434089865535499886e-01 1.566694788498599955e+01
1.612680947408080101e+00 1.699386077253990024e+01
-3.631787611171600094e+00 1.329558527694659986e+01
-1.772369612008329876e-01 8.765826533603860327e+00
2.695035636425019976e-01 1.186377067049160061e+01
1.796434771269560082e+00 1.682256027170119950e+01
-1.745506642386319918e+00 3.106561462004060026e+00
1.183147834613919924e+00 1.648060362517360034e+01
-2.110120512545110127e+00 3.993608378711099860e+00
-1.221402948722239978e+00 3.422936154735429781e+00
3.584950702264900091e+00 6.997173194483350400e+00
-2.517628464847800007e+00 5.910201318606399745e+00
1.718038484454150083e+00 1.692425610855829987e+01
-3.706365121528509832e+00 1.374656541817729938e+01
3.112171942368150201e+00 1.020591526958829931e+01
-6.486728247255090229e-01 5.771094687714430016e+00
1.706232005730270007e+00 1.693589819298919963e+01
1.179537149146199893e+00 1.647100721396169831e+01
1.333641262725000054e+00 1.680407204291629952e+01
-2.513015879318119872e+00 5.884040907200779991e+00
-3.592959091067310151e+00 1.305336872625630029e+01
-1.185616726055739978e+00 3.512883230808280022e+00
1.235206132754679942e+00 1.660951275289550111e+01
-3.967144476249810037e+00 1.514445479449580034e+01
3.604970112442969832e+00 6.871196353177060345e+00
9.204367920756340027e-02 1.064339637585240084e+01
-1.018324844539169938e+00 4.041389247788809591e+00
6.792007479816679627e-01 1.439719942677469966e+01
1.010055579245090041e+00 1.592802982609200058e+01
-3.277423325926069886e+00 1.094789365161209993e+01
1.420565083622929992e+00 1.692115546466470022e+01
-3.256593436002729991e+00 1.080323225946989929e+01
-6.595603208988900512e-01 5.710613852469429652e+00
-5.946761742234230042e-02 9.583971985988300801e+00
7.874319516122339768e-02 1.055063292183369938e+01
-4.032007139176129740e-01 7.253449232846869599e+00
3.064139232039449823e+00 1.054163202690270040e+01
2.068745356053109941e+00 1.614994802230910054e+01
-2.240134578198190063e+00 4.510372984160519572e+00
-8.943626899272200115e-01 4.541328086840699996e+00
-2.954434467479590154e+00 8.697527760017349507e+00
1.892962768673899898e+00 1.663986190589099934e+01
-3.293093591928479835e+00 1.105645433605010020e+01
-1.806667027994989905e+00 3.193821347651430109e+00
2.354738568887110084e+00 1.495694866254869915e+01
-1.090058442205189992e+00 3.793422408799670187e+00
-2.268736513331529814e+00 4.636827275552300343e+00
-1.269429728388790091e+00 3.315477821966700045e+00
-2.209759991616010222e+00 4.381000448124839686e+00
1.509768960997460052e+00 1.698696885730310058e+01
-1.496815960854289973e-01 8.956136925746049471e+00
-3.906487487256529723e-01 7.334481419456169604e+00
-1.452043294906619986e+00 3.049300011273449851e+00
3.218392360955479869e+00 9.462930368872219944e+00
3.046112919226290128e+00 1.066734310223420046e+01
3.873753627762199780e+00 5.320651344820399586e+00
1.701492439955470060e+00 1.694029989412920045e+01
-1.352017370983960021e+00 3.166857671602969937e+00
-3.618690980598330054e+00 1.321442426144770010e+01
-7.389547377824779995e-01 5.285390449082639996e+00
-4.418559838086369984e-01 7.006674455502410304e+00
-3.624050555750729874e+00 1.324770547650589947e+01
-1.454551938921210041e+00 3.047241419210399815e+00
-1.537889005616309923e+00 3.003789779243109859e+00
2.985210940241810107e+00 1.109021570147590019e+01
1.853661270812150041e+00 1.672181826266350058e+01
6.982249934226270049e-01 1.450001351230250002e+01
2.759468318894509942e+00 1.261024697843410003e+01
-1.618065739050509988e+00 3.007818934625909879e+00
-3.944012364372610158e+00 1.503327872552729971e+01
-3.309776853770019844e+00 1.117174712550260018e+01
-1.283555887639520110e+00 3.286794700644109835e+00
-2.826724648475649748e-01 8.047538681448090259e+00
6.709786877036090225e-01 1.435226964298670005e+01
-2.823327131569389969e+00 7.809562377630880015e+00
2.832799820229409793e+00 1.212736152393650002e+01
-9.854686651378870010e-01 4.165282254002329765e+00
-2.675832711160179844e+00 6.856286526206930354e+00
-2.264857897534970022e+00 4.619419760385469864e+00
-1.730444263666869875e-01 8.794725295467589632e+00
3.770739601925019890e+00 5.880813218813240262e+00
6.956692542880770214e-01 1.448629523518009954e+01
1.501941485330460013e+00 1.698341309257359910e+01
-2.903460228815669897e+00 8.348782836530379114e+00
-2.199413193389769816e+00 4.338108793378889771e+00
-1.978186331689359839e-02 9.861535987865760688e+00
-7.284480165690180309e-01 5.340013661902940356e+00
3.819068614393470007e+00 5.612201206060330350e+00
-8.800445180386300414e-01 4.604629300018750371e+00
-1.567580247297879925e+00 3.000036201054459895e+00
-1.595859110355380084e+00 3.002198385840610051e+00
-6.821173243224619709e-01 5.586934091282720338e+00
6.526467762887480650e-02 1.045652848675529967e+01
1.545591210946440031e+00 1.699777657518789908e+01
-3.562967127189040184e+00 1.286310558898509981e+01
-1.640851050615309975e-02 9.885145580504479668e+00
2.656862193718549925e+00 1.326178920981489995e+01
-2.316103367134930036e+00 4.855842078722489852e+00
-3.733267504721879959e-01 7.446994680552309731e+00
-3.448539225384589901e+00 1.211504535679210015e+01
3.581815520301459888e+00 7.017012345400090112e+00
-3.111228309571739903e+00 9.787482252046460829e+00
-1.093595651909710087e+00 3.782011189451059963e+00
2.254584521055219781e+00 1.542629608558990029e+01
5.771894361823799446e-01 1.381969590614870036e+01
2.453555436804890189e+00 1.444515517828160078e+01
1.668593097478149989e+00 1.696655194218989848e+01
1.990343049168590062e+00 1.639291572636039973e+01
1.834887450560930056e+00 1.675731101743339835e+01
-1.363620692864059958e+00 3.149689539200540178e+00
2.468896359205249968e+00 1.436167998803779966e+01
3.721823543310169846e-01 1.254554466490290032e+01
-2.391355071216819894e+00 5.227311959867670055e+00
2.511469770222900078e+00 1.412470832644249974e+01
-2.978354496881370217e+00 8.862400863196860712e+00
2.391396686434749952e-01 1.165806806229750059e+01
3.525281976908449799e-01 1.241690140289649946e+01
2.899196317419410196e+00 1.168020715819280042e+01
2.248439043760299960e-01 1.156067938823919938e+01
2.390588462352750021e+00 1.477661220237570028e+01
1.491922808811070089e+00 1.697823767408329942e+01
-3.207665365189309892e+00 1.046217253286230076e+01
2.077941931784149932e-01 1.144411433034959913e+01
-1.265484446659679962e+00 3.323727245077710002e+00
-2.529203807935120007e+00 5.976233145992569717e+00
-2.608129465952520043e+00 6.440371435093689811e+00
-2.463813450187439802e+00 5.610547491955499844e+00
1.276970697566869983e+00 1.670000043187700101e+01
2.422498183324929943e+00 1.461092533495489931e+01
-3.436088178306819785e+00 1.203179991081660027e+01
-6.980310510843990013e-01 5.501026470059369622e+00
2.498438628390430072e+00 1.419805607893230004e+01
-2.452970560640100217e+00 5.551682889257929965e+00
-1.590168800204990074e+00 3.001313483461919951e+00
-1.777845460921529952e+00 3.149507449816640214e+00
3.739755954593420029e+00 6.058120598737920304e+00
-2.655513515695929971e+00 6.729860581538519959e+00
-2.372663186863059881e+00 5.132435951693570253e+00
1.764770187437529891e+00 1.686872189135609901e+01
1.407120009884240019e+00 1.690644436402120121e+01
2.741834551095959860e+00 1.272436869992040087e+01
3.754851289093489974e+00 5.971252564333849655e+00
2.803739845752720061e+00 1.232023434654930050e+01
3.485169177874920088e+00 7.642002840954529752e+00
-3.513742201030249923e+00 1.254533073794669917e+01
2.095882585272189846e+00 1.605696493173219963e+01
-2.239048918709159786e+00 4.505660907873160426e+00
-5.109600313007830463e-01 6.576895813173179839e+00
1.705107707530260086e-01 1.118780014394969946e+01
-3.171202840283509961e+00 1.020724102020959911e+01
2.764448983594780085e+00 1.257786471080570045e+01
3.636029193177820140e+00 6.678249761500420156e+00
-3.591355923563239738e-01 7.539744262213919690e+00
-2.878669854253529947e-01 8.012646604022959806e+00
1.205744631588459986e-01 1.084197763642749912e+01
-1.367808226495980106e-01 9.045516986643859170e+00
-1.694085754454139892e+00 3.053133635363399989e+00
-2.599578797817229781e+00 6.388964253526429715e+00
-1.068468440324070068e+00 3.864751042119450197e+00
-3.404923893511300204e+00 1.182208877467610009e+01
3.128914499655369941e+00 1.008874470009119939e+01
-7.820641435682769427e-02 9.453112979897520418e+00
-1.974674072116610057e-01 8.626693892634470728e+00
2.053201062604780081e+00 1.620117331605959876e+01
6.619178932160140194e-01 1.430241590917709971e+01
2.363376162946220216e+00 1.491407266275460053e+01
4.595006648451089859e-01 1.310450434787810003e+01
1.082940615713599897e+00 1.618337991069549986e+01
1.356828367337580055e+00 1.684037239949680043e+01
3.107269203290340176e+00 1.024021697903910066e+01
-1.210244050249460024e+00 3.450085102861999875e+00
3.937364954501390013e+00 4.999170442129229563e+00
-3.040568953379990003e+00 9.294036349083990345e+00
-2.849463650956749916e+00 7.984058245341199900e+00
-2.193452613428239939e+00 4.313674661298310120e+00
-1.093907466158269948e+00 3.781008990020159999e+00
4.020723719149830178e-01 1.273928399959349989e+01
-6.365207917988300323e-01 5.839191779447060249e+00
7.443652134388689667e-01 1.474253534978759994e+01
1.227422563359140018e+00 1.659136937032980086e+01
-1.006644897162910057e+00 4.084701560020969957e+00
3.389593705534930113e+00 8.281733375406030717e+00
-5.208580680191520207e-01 6.516627780993440311e+00
2.409189889207480118e+00 1.468060730748040044e+01
-4.845477100461719755e-01 6.739342724703639931e+00
3.327890664339069993e+00 8.703444319793730344e+00
2.096226658672089904e+00 1.605575721501579878e+01
1.102491132915019989e-01 1.077018133572449976e+01
1.190544994547960034e+00 1.649999967380109922e+01
2.127206362783909954e-01 1.147783994019430054e+01
2.191595248877999946e-01 1.152186530006479970e+01
9.863803703337910012e-01 1.583824116510380087e+01
-1.443574164062739973e+00 3.056572808792069829e+00
3.122801776975390187e+00 1.013152839560060059e+01
3.336457064375280002e+00 8.644565404108590201e+00
-7.648065518587829903e-01 5.153217951290029575e+00
-1.426195697858930078e+00 3.073055268618320124e+00
-2.004747318103909937e+00 3.648818755037639860e+00
-3.532172091305259887e+00 1.266506994923449980e+01
-1.686722101643679972e+00 3.046983096773769883e+00
-8.866374157369140141e-01 4.575343648345289616e+00
-2.626052752137180146e+00 6.548967453269879613e+00
2.306441083550450077e+00 1.518978763547860034e+01
2.997458742931490061e+00 1.100544762574470070e+01
-1.323296310380100094e+00 3.213304706345870176e+00
9.752183612436059468e-01 1.579477084051070079e+01
-1.803637091070410037e+00 3.188896142686389990e+00
1.202378179878000053e-01 1.083963818157410053e+01
3.322181005030869994e+00 8.742741282175320094e+00
-2.469502504914999896e+00 5.641639467579159906e+00
-3.557584589347240200e+00 1.282868227936459959e+01
-4.566110484302039751e-02 9.680483321775589900e+00
-1.251868221908809975e+00 3.352995614573719863e+00
-1.742252660915259987e+00 3.102638649389540149e+00
2.154284309595820179e+00 1.584182247262499921e+01
3.073068859055640090e+00 1.047929126996969984e+01
9.860910680145029694e-01 1.583712363913570087e+01
-1.833476539701220043e+00 3.240117658919130061e+00
4.822442997246980112e-01 1.324638085357880080e+01
-2.724516158923509845e+00 7.164374942450390193e+00
3.797806467860939783e+00 5.729150149354749644e+00
-2.781227065250280184e+00 7.531685461158679651e+00
1.163420125842089980e+00 1.642714474861270091e+01
1.393494740128520037e+00 1.689026244266749899e+01
6.121521703898910038e-01 1.402241107953230070e+01
3.106972681358460164e+00 1.024229139942850075e+01
-1.942266028374429965e+00 3.477435895286900003e+00
-2.766381593421099794e+00 7.434717601844750057e+00
-1.879857551306489905e+00 3.331663277619870023e+00
-1.897949777543540106e+00 3.371273602636609912e+00
-2.634838119149209845e+00 6.602604469667210374e+00
3.911707289516929809e+00 5.126477273141960112e+00
2.083196289837359938e+00 1.610099271595939996e+01
3.358784461393950149e+00 8.491582189737220787e+00
2.326643280684950049e-02 1.016285033617550049e+01
1.583572627976540081e+00 1.699942868921990069e+01
7.531361635774369567e-01 1.478751070076000040e+01
2.196732336655260021e+00 1.567290575264149943e+01
-3.604675225913520187e+00 1.312695697978169918e+01
2.531825110316280103e+00 1.400873838350529965e+01
-7.242003791034220539e-01 5.362242995378069921e+00
-2.780442018061879850e+00 7.526543868179129682e+00
-2.716199260205029997e+00 7.111245974920390012e+00
6.996909361332650512e-01 1.450786889972740035e+01
3.928274551406500059e+00 5.043902450774850443e+00
3.368521630764009789e+00 8.425095889754009804e+00
-7.281846255064009510e-01 5.341389636032340071e+00
-6.122907921671869591e-01 5.976794809859350188e+00
-3.393142957240339985e+00 1.174234038864799956e+01
-3.240300694480540145e+00 1.068983480293339916e+01
-2.269961683079599890e+00 4.642342708580319943e+00
6.104147005826230377e-01 1.401245123538980053e+01
-2.241858949884770080e+00 4.517870554034409736e+00
2.279452450573439926e+00 1.531466022381090042e+01
-1.734938422217970011e+00 3.094087663925300102e+00
-5.684112329035999611e-01 6.231943514347710433e+00
2.258354410529140210e+00 1.540958659149890053e+01
-3.302245585247869819e+00 1.111973935188660079e+01
-3.730177816003560132e+00 1.388629374243780035e+01
-7.986465729773040145e-01 4.985112552595269975e+00
-3.110916605219240072e+00 9.785301337723810278e+00
-1.500414680689569957e+00 3.017330360669129963e+00
-2.273897789418700133e-01 8.421953143184399693e+00
-8.934470787644389622e-01 4.545342684581229697e+00
1.491000656038520056e+00 1.697772610082120082e+01
-9.184672534465789795e-01 4.437295180406199968e+00
-2.117849135771389779e+00 4.021571064814479790e+00
6.696503795683379778e-02 1.046840500309440003e+01
-3.618320120498539794e+00 1.321211791447709949e+01
-1.929590389132499917e+00 3.445753253331480082e+00
3.838575338944790083e+00 5.506651079313689578e+00
-3.339750546962020117e+00 1.137804525319680060e+01
2.285502674058080164e+00 1.528700012750650039e+01
-9.109573066234590011e-02 9.363211463194570428e+00
2.073082715272899890e+00 1.613538881204020115e+01
-1.473497686907649928e+00 3.033108456382239915e+00
-3.803090523928399858e+00 1.430009628764189955e+01
3.405663646757600027e+00 8.172911955885780344e+00
-1.420915585011240045e+00 3.078477751591929934e+00
3.885127075016499898e+00 5.261743724467479844e+00
2.459992874413730046e+00 1.441025314448910066e+01
-3.605085622519249799e+00 1.312952693108050006e+01
-2.823242472484710053e+00 7.808999533180839947e+00
3.704193860292429807e+00 6.266282011762910109e+00
-3.577248457819219851e+00 1.295403527939370036e+01
-2.146993717178700134e+00 4.130216370960350325e+00
-2.705526318401100028e+00 7.043359676759430421e+00
-2.231176497414709914e+00 4.471686402195249599e+00
-2.262051887810229811e+00 4.606876627808560443e+00
-3.029823565855620071e+00 9.219244334266500474e+00
-3.949593728408220095e+00 1.506035230743260023e+01
-4.623994063585999958e-01 6.877322252823280024e+00
2.909152891486880055e+00 1.161246649927359975e+01
1.560841955244540058e+00 1.699965318956839866e+01
-5.927589274942870468e-01 6.089440146308420232e+00
3.942772485315800268e-01 1.268898693866620064e+01
-1.509833527728920100e+00 3.013003592015810028e+00
-5.684752706438299663e-01 6.231565744179749622e+00
-1.529705338180070040e+00 3.005908811234620170e+00
2.682042559608820209e+00 1.310481445845310056e+01
-3.360216701403259787e+00 1.151820640086049963e+01
4.265119004994630258e-01 1.289588396918679969e+01
-3.194227341562509981e+00 1.036827271640619941e+01
1.224815400317309955e+00 1.658520277677590116e+01
1.362256316468120065e+00 1.684833955082660140e+01
2.685670696198939833e+00 1.308203199716800036e+01
2.944854455068710131e+00 1.136830047896789964e+01
-3.661114569753410208e+00 1.347525633526639943e+01
-3.141642760485409802e+00 1.000035074826920045e+01
-2.622626028954980093e+00 6.528118371811020282e+00
1.881474446505309928e+00 1.666488539264669910e+01
2.675207823514940131e+00 1.314762113437310020e+01
-3.534465629607439929e+00 1.267990858786230035e+01
3.560280827805399895e+00 7.154063977468889668e+00
-2.864744737744330028e+00 8.086725328450240724e+00
-2.107042063027619871e+00 3.982570158670359906e+00
3.395831894129509809e+00 8.239435763067159968e+00
-9.282428976148370259e-01 4.396022260890659616e+00
-3.217184543609620251e-01 7.786618808396569946e+00
2.924006512388590107e+00 1.151111317660240019e+01
6.034853588789700352e-01 1.397260940178819943e+01
2.483184529468419832e+00 1.428300954260869915e+01
2.520651960745449838e+00 1.407260359089410073e+01
2.016300329938530034e+00 1.631675519048170031e+01
7.192129902541639641e-01 1.461154952573340005e+01
